
\data\
ngram 1=1205
ngram 2=5670
ngram 3=1674

\1-grams:
-2.497544	%	-0.8996228
-3.451787	's	-0.2484883
-1.183677	,	-0.5079235
-1.271087	.	-1.277647
-3.548697	0.163	-0.3928465
-4.150756	0.231	-0.1722014
-3.673635	0.27	-0.4836499
-4.150756	0.271	-0.2003368
-4.150756	0.281	-0.1722014
-4.150756	0.3	-0.2012593
-4.150756	0.5	-0.2012593
-3.247666	1	-0.9505128
-4.150756	1.4	-0.2012593
-3.673635	1.43	-0.4845724
-3.673635	1.431	-0.4845724
-3.849726	1.63	-0.3505155
-3.150756	10	-1.040009
-4.150756	10.25	-0.2002445
-3.196514	10.5	-0.9986166
-4.150756	11.1	-0.2002445
-3.673635	116	-0.1971855
-4.150756	133	-0.2004292
-4.150756	140	-0.2004292
-3.849726	143	-0.2000597
-3.451787	15.1	-0.3964836
-4.150756	161	-0.2015971
-3.071575	163	-0.7148967
-4.150756	1900	-0.1722014
-3.849726	2	-0.2008598
-4.150756	2.27	-0.2004292
-3.673635	2.7	-0.1936986
-4.150756	2.71	-0.2003368
-3.849726	20	-0.1994432
-4.150756	20.5	-0.2002445
-3.673635	200	-0.2650671
-3.109364	20000	-0.4287158
-4.150756	2003	-0.1722014
-4.150756	2004	-0.1749515
-2.659395	2013	-0.6989715
-3.150756	2014	-0.280468
-2.632242	2015	-0.8593959
-3.673635	2016	-0.4555144
-3.849726	207	-0.2003984
-3.673635	217	-0.2943314
-4.150756	23	-0.2002445
-4.150756	23.45	-0.2002445
-3.548697	23.5	-0.6953979
-4.150756	27	-0.2003368
-4.150756	27.1	-0.2003368
-3.548697	270	-0.6955826
-4.150756	2700	-0.1722014
-3.451787	271	-0.4242139
-4.150756	3.4	-0.1722014
-3.196514	3.5	-1.130498
-2.478659	30	-1.048317
-3.247666	300	-0.9529516
-4.150756	3000	-0.2003368
-4.150756	3300	-0.2003368
-4.150756	3rd	-0.2011672
-3.548697	40th	-0.3801703
-3.849726	5.1	-0.3504231
-3.849726	500	-0.1709186
-4.150756	51	-0.2002445
-4.150756	51.2	-0.2012593
-3.673635	530	-0.4836499
-4.150756	537.3	-0.2003368
-4.150756	537.36	-0.2003368
-4.150756	537.5	-0.2003368
-3.849726	537.6	-0.3505155
-4.150756	537.61	-0.2003368
-4.150756	61.3	-0.2003368
-3.673635	8	-0.2930361
-4.150756	8.08	-0.2000905
-2.735783	808	-0.893123
-1.334515	</s>
-99	<s>	-0.9986461
-4.150756	?	-0.2009213
-1.851903	a	-0.4622153
-2.402568	about	-0.3319011
-4.150756	about…	-0.1810443
-4.150756	accelerating	-0.1777168
-4.150756	accomplishment	-0.1872431
-2.735783	according	-1.607451
-3.849726	account	-0.3464018
-4.150756	achieve	-0.2015357
-4.150756	acquire	-0.1749515
-3.849726	actions	-0.1834512
-3.849726	activities	-0.3278954
-3.036813	actually	-0.3011967
-4.150756	adaption	-0.2015971
-4.150756	add	-0.2003368
-4.150756	added	-0.2003368
-4.150756	addition	-0.1722014
-3.849726	advanced	-0.1873382
-3.849726	advantages	-0.1771976
-2.645607	after	-0.6254143
-3.196514	age	-0.3879612
-4.150756	agent	-0.1777168
-4.150756	ages	-0.2000905
-3.849726	aggregate	-0.1976503
-3.451787	ago	-0.1907414
-4.150756	aim	-0.1962232
-4.150756	aims	-0.1872431
-3.150756	airport	-0.1624701
-4.150756	airports	-0.200306
-2.808334	all	-0.4667214
-4.150756	all-round	-0.2003368
-4.150756	alleviate	-0.1749515
-3.673635	almost	-0.2881596
-3.372605	already	-0.1969994
-2.570973	also	-0.1883336
-3.451787	although	-0.338694
-4.150756	altogether	-0.1872431
-3.451787	always	-0.1985168
-4.150756	am	-0.1872431
-4.150756	ameliorate	-0.1749515
-2.703598	among	-0.3284306
-3.451787	amount	-0.2831138
-4.150756	amounted	-0.193167
-2.331213	an	-1.00316
-4.150756	an-hour	-0.2011672
-1.566425	and	-0.3410463
-2.548697	another	-0.6728616
-4.150756	anticipated	-0.2012286
-3.673635	any	-0.199844
-4.150756	applied	-0.1872431
-4.150756	appropriate	-0.1962232
-3.849726	approximately	-0.1726609
-2.191715	are	-0.3999748
-3.247666	area	-0.1832474
-3.849726	areas	-0.1682752
-2.974665	around	-0.723027
-3.305658	arrive	-0.3681314
-2.365427	as	-0.4586566
-3.305658	asia	-0.879179
-3.673635	asian	-0.201075
-4.150756	aside	-0.1977123
-4.150756	aspired	-0.1962232
-4.150756	associated	-0.1777168
-3.673635	asymmetry	-0.2718005
-2.426481	at	-0.3505117
-3.372605	automobile	-0.1966995
-3.036813	automobiles	-0.3382219
-4.150756	autumn	-0.1988258
-3.849726	available	-0.1687721
-3.673635	average	-0.1602136
-4.150756	averagely	-0.1722014
-4.150756	avoid	-0.1995049
-4.150756	back	-0.1872431
-4.150756	background	-0.1919133
-3.849726	bad	-0.1753104
-4.150756	base	-0.1872431
-3.548697	basic	-0.1558362
-4.150756	basis	-0.1919133
-2.305658	be	-0.2811078
-3.849726	became	-0.1994432
-2.872003	because	-0.2584339
-3.004628	become	-0.1919714
-3.849726	becomes	-0.1939174
-3.548697	becoming	-0.2684739
-2.752816	been	-0.2005341
-3.305658	before	-0.285935
-3.548697	behind	-0.327571
-2.344576	beijing	-0.784758
-3.849726	beijng	-0.1465636
-4.150756	being	-0.1749515
-4.150756	below	-0.201075
-4.150756	benign	-0.2015357
-3.673635	besides	-0.2640777
-4.150756	best-selling	-0.1999364
-3.849726	better	-0.1771002
-2.770545	between	-0.6490087
-3.036813	big	-0.5491583
-3.548697	bigger	-0.2386252
-2.527507	billion	-0.4012909
-4.150756	blog	-0.1872431
-4.150756	bombaster	-0.1993198
-4.150756	both	-0.2013208
-4.150756	bought	-0.1722014
-4.150756	brand	-0.1977433
-3.673635	breakthrough	-0.2803752
-4.150756	brought	-0.2015971
-4.150756	budget	-0.1962232
-4.150756	build	-0.1749515
-2.974665	bus	-0.2328868
-4.150756	buses	-0.1722014
-3.372605	business	-0.2904027
-4.150756	businesses	-0.1777168
-2.275695	but	-0.3936325
-3.036813	buy	-0.3573076
-3.849726	buying	-0.1712149
-2.527507	by	-0.3321432
-4.150756	calculation	-0.1973095
-4.150756	called	-0.1749515
-4.150756	came	-0.2014129
-2.182273	can	-0.4863828
-3.247666	capacity	-0.2676099
-3.036813	capita	-0.2397678
-3.247666	car	-0.1458497
-4.150756	cares	-0.1999056
-3.849726	cargo	-0.2015664
-3.849726	carried	-0.3514687
-3.849726	carries	-0.3500842
-2.372605	cars	-0.6443595
-3.673635	case	-0.1567561
-4.150756	cause	-0.1749515
-3.849726	caused	-0.201505
-4.150756	causing	-0.1749515
-3.036813	cellphone	-0.2196489
-3.849726	cellphones	-0.1465636
-3.548697	change	-0.2139724
-2.920308	changed	-0.2726687
-4.150756	changes	-0.1749515
-2.443186	chaoyang	-0.8887882
-4.150756	characteristics	-0.1777168
-2.719393	china	-0.7351577
-3.849726	choice	-0.1617976
-4.150756	choices	-0.1962232
-2.920308	choose	-0.2584495
-3.849726	circle	-0.1879405
-3.849726	circulation	-0.1863856
-3.247666	cities	-0.3694866
-3.451787	citizens	-0.1749189
-2.974665	city	-0.2156965
-4.150756	class	-0.1777168
-4.150756	clearly	-0.201505
-4.150756	client	-0.1777168
-4.150756	close	-0.193167
-4.150756	closed	-0.193167
-4.150756	closer	-0.193167
-4.150756	code	-0.1777168
-4.150756	coined	-0.2003368
-3.673635	combination	-0.4752264
-3.247666	combine	-0.2350453
-3.849726	combined	-0.1743637
-4.150756	combines	-0.1749515
-3.673635	come	-0.1627721
-3.673635	coming	-0.285999
-3.673635	common	-0.2925107
-3.548697	communicate	-0.2597579
-4.150756	community	-0.1777168
-4.150756	commute	-0.1962232
-3.673635	commuting	-0.1826504
-2.752816	companies	-0.19902
-3.548697	company	-0.240667
-3.372605	compared	-0.325516
-4.150756	compatible	-0.200306
-3.849726	compatition	-0.32238
-4.150756	compete	-0.200306
-3.849726	competence	-0.186481
-2.872003	competition	-0.541141
-4.150756	competitions	-0.2008906
-3.548697	competitive	-0.2273216
-4.150756	competity	-0.1722014
-3.673635	complete	-0.2650012
-4.150756	comprehended	-0.2003676
-3.849726	concerned	-0.1701932
-4.150756	concerning	-0.198424
-3.673635	condition	-0.4752264
-4.150756	conducted	-0.201505
-3.247666	congestion	-0.1747649
-4.150756	connect	-0.200306
-4.150756	connected	-0.198424
-4.150756	connecting	-0.198424
-3.673635	connection	-0.2830698
-3.673635	consider	-0.2688715
-4.150756	consideration	-0.2015357
-4.150756	considered	-0.1997515
-3.673635	constitute	-0.2377405
-3.673635	consumer	-0.2797069
-3.109364	consumers	-0.2152289
-4.150756	consumption	-0.2003368
-4.150756	contact	-0.200306
-4.150756	contend	-0.2015971
-3.849726	context	-0.3420919
-4.150756	control	-0.1919133
-4.150756	controlled	-0.2015971
-3.673635	convenient	-0.176255
-4.150756	cope	-0.200306
-4.150756	coping	-0.200306
-4.150756	corporation	-0.2009521
-2.606688	cost	-0.4209024
-4.150756	costly	-0.2015357
-4.150756	costs	-0.2008291
-3.150756	could	-0.1839949
-3.673635	counted	-0.2924179
-2.789029	countries	-0.1966909
-3.109364	country	-0.2761612
-4.150756	course	-0.2005523
-4.150756	coverage	-0.1722014
-3.305658	cpi	-0.1824579
-3.849726	crescendo	-0.1617976
-4.150756	culture	-0.1919133
-3.673635	current	-0.200583
-3.849726	currently	-0.143592
-4.150756	custom	-0.2012593
-3.247666	customer	-0.3614525
-2.946636	customers	-0.3686872
-3.849726	customize	-0.1742329
-3.548697	customized	-0.2440381
-3.548697	cycle	-0.2401081
-3.451787	daily	-0.2536371
-3.372605	days	-0.2632184
-3.548697	deal	-0.6954595
-4.150756	decide	-0.193167
-4.150756	declined	-0.1777168
-4.150756	defeating	-0.1973095
-2.946636	demand	-0.5563043
-3.036813	demands	-0.3798874
-4.150756	depart	-0.2006445
-4.150756	describe	-0.1749515
-4.150756	desire	-0.200306
-3.673635	destination	-0.2407122
-3.071575	develop	-0.2915253
-3.548697	developed	-0.165182
-3.673635	developing	-0.2677599
-2.974665	development	-0.3081629
-3.849726	did	-0.1971545
-3.036813	different	-0.2805839
-4.150756	diminished	-0.1777168
-4.150756	dispatch	-0.1872431
-4.150756	disposal	-0.2015357
-3.673635	distance	-0.4842036
-4.150756	distribution	-0.1919133
-2.559692	district	-0.8754022
-3.849726	diversified	-0.2006445
-3.071575	do	-0.792086
-4.150756	doesn	-0.199042
-3.849726	doing	-0.2014743
-2.895484	dollars	-0.5191972
-3.196514	don	-0.9974142
-4.150756	done	-0.1999981
-3.673635	dong	-0.2662513
-4.150756	dongjing	-0.1722014
-3.849726	down	-0.1747556
-4.150756	dpi	-0.2011672
-3.548697	dragons	-0.2146358
-4.150756	draw	-0.1749515
-3.372605	drive	-0.1832872
-4.150756	driven	-0.1986404
-3.196514	due	-1.120192
-3.849726	during	-0.3251301
-3.372605	each	-0.2317076
-4.150756	ease	-0.1749515
-3.849726	easily	-0.1773924
-4.150756	easing	-0.1896791
-4.150756	east	-0.1777168
-3.036813	economic	-0.2513001
-4.150756	economies	-0.1722014
-3.150756	economy	-0.3141114
-4.150756	effected	-0.1896791
-3.451787	effective	-0.3420116
-4.150756	effetly	-0.1722014
-3.247666	efficient	-0.3919922
-4.150756	efficiently	-0.1777168
-4.150756	efforts	-0.1896791
-4.150756	electronic	-0.1997824
-4.150756	elements	-0.1995357
-4.150756	else	-0.1777168
-3.849726	emergence	-0.3420919
-4.150756	enable	-0.198424
-3.849726	enabled	-0.171544
-3.673635	end	-0.4752264
-4.150756	enervate	-0.1722014
-4.150756	enlightened	-0.1777168
-3.849726	enough	-0.17207
-4.150756	enter	-0.1749515
-4.150756	enterprise	-0.198764
-3.071575	enterprises	-0.2078973
-4.150756	enters	-0.1919133
-4.150756	entire	-0.2007368
-4.150756	envails	-0.1896791
-3.673635	equal	-0.2872216
-3.849726	equivalent	-0.1784944
-3.305658	era	-0.2562683
-3.849726	especially	-0.3374217
-3.548697	estimated	-0.38283
-4.150756	estimates	-0.19796
-3.451787	even	-0.3123902
-4.150756	eventually	-0.2014129
-3.451787	ever	-0.4025691
-2.645607	every	-0.3575604
-4.150756	everybody	-0.199042
-3.849726	everyone	-0.1465636
-3.673635	everything	-0.4610299
-3.849726	exact	-0.2005522
-4.150756	exaggerated	-0.2003368
-2.299498	example	-1.440361
-4.150756	exceed	-0.2015971
-3.451787	exceeded	-0.1963475
-4.150756	excessive	-0.2013822
-4.150756	exchange	-0.1919133
-4.150756	expanded	-0.2005523
-4.150756	expansion	-0.2005523
-3.548697	expectancy	-0.3851911
-3.849726	expectation	-0.3420919
-3.451787	expected	-0.1844233
-4.150756	expenditure	-0.19796
-4.150756	explains	-0.1722014
-2.974665	export	-0.3805269
-4.150756	exportation	-0.1919133
-4.150756	face	-0.1954767
-4.150756	faced	-0.200306
-4.150756	facility	-0.1777168
-3.673635	facing	-0.2871589
-3.673635	fact	-0.1537165
-3.849726	factor	-0.1746903
-3.071575	factories	-0.2081327
-4.150756	factors	-0.1777168
-3.451787	factory	-0.183627
-4.150756	facts	-0.19796
-3.849726	fail	-0.3433456
-4.150756	fairly	-0.2014436
-3.849726	fall	-0.3516836
-4.150756	fantastic	-0.2015971
-4.150756	far	-0.1997515
-3.673635	fashion	-0.1663487
-4.150756	fashionally	-0.1872431
-3.247666	fast	-0.3269539
-3.451787	faster	-0.54145
-3.849726	fat	-0.3508232
-3.305658	features	-0.3107684
-2.808334	feet	-0.5987798
-3.673635	few	-0.4846339
-3.849726	field	-0.32238
-3.109364	fierce	-0.3607454
-4.150756	fiercely	-0.1777168
-3.849726	financial	-0.2005215
-3.150756	find	-0.1622916
-3.305658	finland	-0.3419756
-2.920308	first	-0.5958287
-4.150756	fit	-0.1872431
-4.150756	fixed	-0.2015971
-4.150756	flow	-0.1872431
-3.849726	foot	-0.1646476
-4.150756	foots	-0.2010443
-1.907718	for	-0.4692453
-4.150756	forces	-0.1722014
-4.150756	foreign	-0.2015357
-4.150756	forgotten	-0.199659
-3.849726	former	-0.3515301
-4.150756	forth	-0.2014743
-3.372605	fortieth	-0.19008
-4.150756	forty	-0.2011672
-4.150756	found	-0.19796
-3.247666	foundation	-0.2518027
-3.196514	four	-0.4117287
-4.150756	fourteenth	-0.2015357
-2.752816	france	-0.6618854
-2.645607	from	-0.4393792
-4.150756	function	-0.2013822
-3.673635	functions	-0.1622347
-4.150756	fundamental	-0.2015971
-4.150756	funny	-0.2015971
-3.548697	further	-0.2685972
-3.673635	future	-0.2713786
-2.478659	gdp	-0.4684492
-4.150756	general	-0.2001829
-3.196514	german	-0.2037359
-2.872003	germany	-0.7156002
-3.004628	get	-1.037011
-4.150756	getting	-0.2014436
-4.150756	give	-0.195321
-3.071575	global	-0.2242215
-4.150756	globally	-0.1777168
-2.872003	go	-0.464837
-3.849726	goals	-0.3464018
-3.372605	going	-0.2816909
-3.150756	good	-0.1852973
-3.247666	goods	-0.1922657
-3.109364	government	-0.2958522
-4.150756	governmental	-0.201075
-3.849726	great	-0.1871479
-4.150756	greater	-0.2010443
-3.150756	greatly	-0.2988247
-3.305658	greece	-0.346272
-4.150756	greek	-0.1722014
-4.150756	grew	-0.2003368
-4.150756	ground	-0.1997515
-3.849726	group	-0.1917877
-3.849726	grow	-0.1708197
-3.071575	growth	-0.2407474
-3.849726	had	-0.1931356
-4.150756	half	-0.1919133
-4.150756	handled	-0.1872431
-4.150756	handling	-0.2012901
-4.150756	handy	-0.1997515
-3.849726	happiness	-0.2014743
-4.150756	harbors	-0.1919133
-4.150756	hard	-0.193167
-2.050386	has	-0.4652688
-2.318248	have	-0.3295656
-4.150756	he	-0.2011672
-4.150756	heated	-0.2010443
-4.150756	helpful	-0.2008906
-3.548697	here	-0.236109
-3.372605	high	-0.189346
-3.849726	higher	-0.3507309
-4.150756	hold	-0.2014436
-4.150756	holiday	-0.1896791
-4.150756	home	-0.2001521
-3.372605	hong	-0.4348695
-3.673635	hot	-0.1721357
-4.150756	hot-seller	-0.1722014
-2.067971	hour	-0.5766406
-3.036813	hours	-0.3353901
-4.150756	house	-0.2000905
-3.305658	how	-0.2762587
-2.703598	however	-0.4726901
-3.849726	hundred	-0.1886684
-2.619277	i	-0.4635979
-3.849726	ideal	-0.3517143
-4.150756	ie	-0.1722014
-2.196514	if	-0.9655259
-4.150756	ignore	-0.19796
-3.673635	imbalance	-0.4752264
-4.150756	imbalanced	-0.1777168
-3.849726	impacted	-0.3251301
-4.150756	implemented	-0.2013822
-3.109364	import	-0.1778862
-3.247666	important	-0.241094
-3.305658	improve	-0.3965973
-4.150756	improved	-0.2009213
-3.849726	improvement	-0.1895845
-4.150756	improving	-0.198424
-1.487056	in	-0.7744954
-4.150756	inception	-0.1919133
-4.150756	include	-0.2012593
-4.150756	included	-0.194573
-3.849726	including	-0.1994123
-3.673635	income	-0.2798342
-2.974665	increase	-0.2472332
-3.109364	increased	-0.2802097
-4.150756	increasement	-0.2006445
-4.150756	increases	-0.2009213
-3.673635	increasing	-0.1924465
-4.150756	index	-0.1919133
-4.150756	indicators	-0.1749515
-3.372605	individual	-0.2184011
-4.150756	individualized	-0.2011365
-3.849726	individuals	-0.1650819
-2.946636	industrial	-0.2940901
-3.451787	industrialization	-0.1880603
-4.150756	industrialized	-0.2009213
-3.548697	industries	-0.2332107
-2.735783	industry	-0.2765724
-2.673635	information	-0.3508421
-4.150756	infrastructure	-0.2003368
-3.673635	instead	-0.2559461
-4.150756	insymmetrity	-0.1919133
-3.849726	insymmetry	-0.3420919
-4.150756	inter	-0.2003676
-4.150756	interaction	-0.2007676
-4.150756	interconnected	-0.1777168
-4.150756	interesting	-0.2015357
-3.305658	international	-0.2371385
-3.849726	internationally	-0.1707868
-2.387328	internet	-0.5518725
-4.150756	internets	-0.2015971
-3.247666	into	-0.402427
-3.849726	invest	-0.1999672
-4.150756	investigation	-0.1722014
-3.451787	investment	-0.3210281
-4.150756	iphone	-0.1977433
-3.673635	iran	-0.1568581
-3.247666	ireland	-0.3862854
-1.792822	is	-0.3860134
-3.150756	israel	-0.3752905
-4.150756	issues	-0.2015971
-2.004628	it	-0.6111051
-2.789029	its	-0.2710579
-4.150756	itself	-0.1777168
-2.570973	jam	-0.5681233
-3.451787	jams	-0.2458985
-4.150756	january	-0.1722014
-3.071575	japan	-0.1586592
-3.673635	jing	-0.4555144
-4.150756	joined	-0.1749515
-3.004628	joke	-0.3276882
-3.849726	jokes	-0.1978671
-4.150756	joking	-0.2015664
-3.673635	journey	-0.1643802
-3.071575	june	-0.4551567
-3.071575	just	-0.2230224
-4.150756	keep	-0.200306
-4.150756	kept	-0.1872431
-4.150756	key	-0.193167
-3.150756	kind	-1.031678
-2.895484	know	-0.5190303
-4.150756	knowledge	-0.1777168
-3.372605	kong	-0.4601081
-4.150756	lack	-0.1919133
-4.150756	landscape	-0.19796
-3.109364	large	-0.2571217
-4.150756	large-sized	-0.1872431
-3.849726	largely	-0.2013822
-3.849726	larger	-0.3507309
-3.673635	largest	-0.2810742
-4.150756	last	-0.2010443
-3.004628	later	-0.3307075
-3.849726	latest	-0.2010442
-4.150756	laughing	-0.1999056
-3.673635	launched	-0.1564156
-4.150756	lead	-0.193167
-3.849726	leader	-0.1867669
-4.150756	leading	-0.193167
-4.150756	leads	-0.1999056
-4.150756	learn	-0.2006445
-4.150756	least	-0.1962232
-3.548697	leisure	-0.3936786
-3.548697	less	-0.2680423
-4.150756	lessing	-0.1749515
-4.150756	lesson	-0.1896791
-3.849726	let	-0.1988567
-3.548697	level	-0.3119762
-4.150756	leveraged	-0.1749515
-3.109364	life	-0.2613163
-4.150756	lifespan	-0.1919133
-3.451787	light	-0.245671
-3.109364	like	-0.2182617
-3.849726	limited	-0.3278954
-4.150756	link	-0.2008906
-4.150756	list	-0.1777168
-3.673635	live	-0.4705562
-3.196514	livelihood	-0.2186635
-4.150756	lives	-0.1777168
-3.849726	living	-0.2014743
-3.305658	ll	-0.5895626
-3.849726	local	-0.1773599
-3.849726	locality	-0.1567901
-3.849726	locals	-0.175506
-3.305658	longer	-0.1765332
-4.150756	look	-0.1999981
-4.150756	lose	-0.201505
-3.849726	lost	-0.1776195
-3.150756	lot	-1.032408
-3.673635	lots	-0.4752264
-3.109364	low	-0.91138
-3.548697	lower	-0.3938325
-3.451787	m	-0.5281312
-4.150756	machine	-0.1722014
-3.196514	made	-0.3178394
-4.150756	magnified	-0.1749515
-3.849726	main	-0.3420919
-3.548697	mainly	-0.2004599
-3.673635	maintained	-0.2936842
-3.247666	major	-0.2316011
-4.150756	majority	-0.2015357
-3.036813	make	-0.2155727
-3.673635	makes	-0.1930104
-3.305658	making	-0.2612924
-4.150756	mall	-0.2011365
-3.849726	manufacture	-0.198424
-3.548697	manufacturer	-0.195819
-3.673635	manufacturers	-0.2688389
-4.150756	manufactures	-0.198764
-3.548697	manufacturing	-0.2453728
-2.974665	many	-0.2372112
-3.849726	map	-0.1846976
-4.150756	march	-0.1919133
-3.372605	market	-0.3501217
-4.150756	markets	-0.1962232
-3.004628	may	-0.3050958
-3.673635	maybe	-0.1957257
-3.372605	me	-0.2916462
-3.372605	means	-0.2775085
-4.150756	measure	-0.193167
-3.673635	measures	-0.1645474
-4.150756	medium	-0.2015664
-3.109364	meet	-0.2709711
-4.150756	merging	-0.1919133
-4.150756	merit	-0.2010443
-4.150756	met	-0.1777168
-3.849726	method	-0.1957879
-4.150756	mid-size	-0.2006445
-4.150756	middle	-0.1896791
-4.150756	might	-0.2011979
-2.559692	million	-0.3430131
-4.150756	millions	-0.2011672
-2.735783	minutes	-0.40114
-4.150756	mission	-0.19796
-3.109364	mobile	-0.2969187
-4.150756	mock	-0.1749515
-4.150756	model	-0.1986404
-4.150756	modern	-0.201505
-3.548697	money	-0.1481287
-2.946636	month	-0.5233937
-4.150756	monthly	-0.2001521
-3.150756	months	-0.3166255
-2.451787	more	-0.2788075
-2.828537	morning	-0.4900205
-3.372605	most	-0.4719498
-3.849726	motor	-0.1702262
-4.150756	moving	-0.1777168
-3.451787	much	-0.3450255
-4.150756	multi	-0.2015664
-3.849726	multi-functions	-0.1687721
-3.673635	multiple	-0.17207
-3.548697	municipal	-0.1558021
-3.673635	municipality	-0.1602136
-3.673635	must	-0.1694667
-3.849726	nation	-0.1650819
-3.849726	nationwide	-0.3278954
-4.150756	nearly	-0.2008291
-3.004628	need	-0.227517
-3.849726	needed	-0.32238
-2.872003	needs	-0.2534041
-4.150756	net	-0.193167
-3.849726	netizens	-0.2010135
-4.150756	nets	-0.1872431
-3.372605	network	-0.2214418
-3.849726	networks	-0.1465636
-3.849726	never	-0.1994123
-3.548697	new	-0.2675793
-4.150756	newest	-0.2015971
-4.150756	newly-launched	-0.2012901
-3.548697	next	-0.6961977
-3.004628	no	-0.397238
-3.849726	nobody	-0.2013515
-4.150756	nonsymetry	-0.2007061
-4.150756	north	-0.2015664
-2.365427	not	-0.2911758
-4.150756	noticeable	-0.19796
-2.735783	now	-0.1733737
-2.752816	nowadays	-0.3810653
-3.305658	number	-0.1894324
-3.849726	numbers	-0.1766778
-4.150756	objective	-0.1962232
-4.150756	objectives	-0.1962232
-4.150756	obsolete	-0.1986404
-4.150756	occur	-0.1872431
-1.655212	of	-0.4608667
-3.849726	offer	-0.1982385
-4.150756	office	-0.1722014
-4.150756	official	-0.2015971
-4.150756	often	-0.2015664
-3.451787	old	-0.2258817
-2.469515	on	-0.7818326
-4.150756	once	-0.2014129
-2.163985	one	-0.5008465
-4.150756	one-ground	-0.2012286
-3.673635	one-hour	-0.2954386
-3.673635	ones	-0.2407122
-3.673635	online	-0.1687059
-2.849726	only	-0.2224498
-4.150756	open	-0.1749515
-2.645607	or	-0.4115831
-4.150756	order	-0.193167
-4.150756	oriented	-0.193167
-2.688359	other	-0.211978
-3.451787	others	-0.1345889
-4.150756	otherside	-0.1919133
-2.946636	our	-0.2333632
-3.109364	out	-0.19709
-4.150756	out-bound	-0.2015664
-4.150756	out-dated	-0.1777168
-4.150756	out-fashioned	-0.1896791
-3.673635	out-of-date	-0.2796431
-4.150756	outcome	-0.1977433
-3.673635	outdate	-0.4610299
-3.305658	outdated	-0.3575124
-4.150756	outpaced	-0.2003368
-4.150756	outpacing	-0.2012593
-4.150756	outpassed	-0.201075
-4.150756	outperform	-0.2012593
-3.849726	outperformed	-0.3505155
-3.849726	output	-0.2013208
-4.150756	outside	-0.1777168
-2.895484	over	-0.2156134
-4.150756	over-capacity	-0.1722014
-3.849726	over-dated	-0.2002752
-4.150756	overall	-0.2001829
-3.247666	overcapacity	-0.1880953
-4.150756	overload	-0.1919133
-4.150756	overnight	-0.1777168
-3.849726	overproduction	-0.1567901
-4.150756	oversupplied	-0.201075
-4.150756	overtaken	-0.2013822
-3.305658	own	-0.2452437
-3.849726	owned	-0.3505155
-4.150756	pace	-0.1919133
-3.548697	pair	-0.6870668
-4.150756	pakestine	-0.1722014
-3.451787	pakistan	-0.2486753
-4.150756	palestin	-0.1777168
-4.150756	palestine	-0.1777168
-4.150756	paris	-0.193167
-4.150756	parkestan	-0.1777168
-3.849726	part	-0.1617976
-4.150756	passage	-0.2001521
-3.849726	passed	-0.1927912
-3.673635	passenger	-0.2009213
-3.548697	passengers	-0.1656491
-4.150756	passing	-0.19796
-2.770545	past	-0.6893432
-4.150756	pastiche	-0.1872431
-3.849726	peak	-0.1915051
-2.133723	people	-0.4222293
-2.719393	per	-1.19765
-3.849726	performance	-0.2014129
-3.451787	period	-0.1813022
-3.247666	person	-0.2283653
-3.196514	personal	-0.280158
-4.150756	personalization	-0.194573
-3.451787	personalized	-0.1569942
-4.150756	perspective	-0.1722014
-4.150756	phase	-0.2012593
-3.849726	phenomenon	-0.3420919
-3.109364	phone	-0.2176975
-4.150756	phones	-0.1995357
-4.150756	pin	-0.2013822
-4.150756	pity	-0.19796
-3.109364	place	-0.265762
-4.150756	places	-0.1722014
-4.150756	places.however	-0.1722014
-4.150756	plan	-0.1722014
-4.150756	play	-0.1954767
-3.849726	point	-0.1964096
-2.828537	poland	-1.468783
-4.150756	policy	-0.19796
-2.849726	popular	-0.2036186
-3.673635	popularity	-0.2895007
-3.849726	port	-0.193386
-4.150756	portion	-0.1919133
-3.548697	portugal	-0.3584853
-3.673635	portuguese	-0.2592304
-4.150756	poser	-0.2005523
-4.150756	possess	-0.2009521
-4.150756	post	-0.1749515
-3.849726	practice	-0.1889845
-4.150756	precise	-0.194573
-4.150756	predicted	-0.1872431
-3.548697	prefer	-0.6883204
-4.150756	preferred	-0.1777168
-4.150756	present	-0.1777168
-4.150756	pretty	-0.2013208
-4.150756	previous	-0.2015971
-3.849726	previously	-0.1719385
-3.849726	price	-0.1761899
-4.150756	prices	-0.2014129
-4.150756	primary	-0.2015664
-2.946636	private	-1.228603
-4.150756	private-owned	-0.1997824
-2.735783	problem	-0.4154719
-3.849726	problems	-0.1625035
-2.808334	produce	-0.2247518
-3.849726	produced	-0.1712149
-3.548697	producers	-0.258246
-4.150756	produces	-0.1722014
-2.410394	product	-0.3212287
-3.071575	production	-0.1949528
-3.673635	productivity	-0.2853708
-2.659395	products	-0.2249541
-3.849726	project	-0.1735786
-3.673635	projects	-0.1735459
-4.150756	promoting	-0.198424
-4.150756	propelled	-0.2010443
-3.673635	proper	-0.1990728
-4.150756	properly	-0.2015971
-4.150756	proportion	-0.1777168
-4.150756	proved	-0.199659
-3.372605	provide	-0.2303092
-2.537973	public	-0.7568577
-4.150756	pulled	-0.2015664
-3.673635	purchase	-0.2943622
-4.150756	purchased	-0.2003368
-3.849726	purposes	-0.1697311
-3.673635	put	-0.1856857
-4.150756	quality	-0.1977433
-4.150756	quantity	-0.193167
-3.196514	quarter	-0.9902855
-4.150756	quarters	-0.19796
-3.548697	quickly	-0.1983003
-3.451787	quite	-0.2524948
-3.548697	railway	-0.2679189
-4.150756	raise	-0.1999056
-3.849726	raised	-0.1941673
-3.548697	rank	-0.1609558
-3.673635	ranked	-0.2008598
-3.305658	ranking	-0.1804539
-3.109364	ranks	-0.2792858
-3.451787	rate	-0.199526
-3.548697	reach	-0.2599465
-2.606688	reached	-0.2452489
-4.150756	reaches	-0.2013822
-4.150756	reaching	-0.2015357
-4.150756	realize	-0.19796
-4.150756	realized	-0.1749515
-3.451787	really	-0.3105547
-4.150756	reasonable	-0.193167
-3.849726	recently	-0.1995357
-4.150756	recreational	-0.1896791
-3.849726	reduce	-0.3251301
-3.451787	reduced	-0.2023805
-4.150756	reform	-0.1872431
-4.150756	regarding	-0.193167
-3.548697	region	-0.2967423
-3.673635	registered	-0.2922632
-4.150756	relatively	-0.2012901
-3.548697	released	-0.1567561
-4.150756	relevantly	-0.2015971
-4.150756	remain	-0.201505
-4.150756	remiss	-0.2012593
-2.895484	report	-0.3073913
-4.150756	reported	-0.19796
-4.150756	represent	-0.2015664
-4.150756	request	-0.1962232
-4.150756	requirement	-0.1919133
-3.548697	requires	-0.2392849
-4.150756	reserved	-0.1872431
-4.150756	resolved	-0.1777168
-4.150756	resources	-0.2006445
-3.849726	resulted	-0.3374217
-4.150756	resulting	-0.193167
-4.150756	reveals	-0.1872431
-4.150756	ride	-0.2013822
-3.849726	right	-0.3510077
-3.548697	rise	-0.2669612
-3.849726	rising	-0.1708197
-3.036813	rmb	-0.3254761
-2.974665	road	-0.1655753
-4.150756	role	-0.1872431
-4.150756	roles	-0.2013822
-4.150756	rolled	-0.2013822
-4.150756	root	-0.1919133
-4.150756	round	-0.1919133
-3.247666	run	-0.4177869
-4.150756	running	-0.1872431
-4.150756	runs	-0.2001521
-3.673635	rush	-0.2916439
-2.469515	s	-0.2174357
-3.372605	said	-0.4526424
-2.895484	same	-0.4721206
-3.849726	satisfies	-0.3251301
-3.548697	satisfy	-0.3673092
-3.451787	say	-0.1922002
-4.150756	saying	-0.19796
-3.849726	scale	-0.1719385
-4.150756	schedule	-0.1722014
-4.150756	scheduled	-0.1896791
-4.150756	search	-0.1962232
-4.150756	season	-0.1919133
-4.150756	seasonal	-0.1722014
-4.150756	seasons	-0.1973095
-4.150756	sectors	-0.1977433
-3.673635	see	-0.1693014
-3.673635	seen	-0.1528589
-4.150756	seldom	-0.2012593
-3.849726	selected	-0.351745
-3.150756	sell	-0.2226717
-3.673635	selling	-0.1843144
-4.150756	sense	-0.2008291
-3.673635	serious	-0.1694006
-3.849726	serve	-0.1943858
-3.849726	service	-0.3398578
-3.548697	set	-0.1930418
-3.849726	settlement	-0.3420919
-4.150756	seventy	-0.2012593
-3.071575	several	-0.6665673
-3.372605	severe	-0.2182702
-3.849726	severed	-0.3278954
-4.150756	shaken	-0.1749515
-4.150756	shaped	-0.1749515
-4.150756	shapes	-0.1749515
-4.150756	shaping	-0.1749515
-4.150756	shelves	-0.1722014
-2.337843	shenzhen	-0.403728
-4.150756	shocked	-0.1749515
-3.004628	shoe	-0.2529481
-2.537973	shoes	-0.5722882
-3.150756	short	-0.3041965
-3.673635	shorted	-0.2662185
-3.673635	shorten	-0.1473642
-3.372605	shortened	-0.3885951
-3.451787	should	-0.3462006
-3.548697	show	-0.6931134
-3.849726	shows	-0.1872113
-4.150756	significant	-0.2010443
-4.150756	significantly	-0.2014743
-3.548697	similar	-0.3718978
-3.849726	site	-0.3420919
-4.150756	situate	-0.1749515
-3.071575	situation	-0.2440727
-4.150756	sixty-three	-0.2004292
-2.703598	size	-0.7805613
-4.150756	sized	-0.2011672
-3.451787	sizes	-0.1796601
-4.150756	slowly	-0.1896791
-2.688359	small	-0.4888036
-3.305658	smaller	-0.2626034
-3.849726	smartphone	-0.170556
-4.150756	smooth	-0.1749515
-2.305658	so	-0.5249919
-3.849726	social	-0.3513458
-3.548697	society	-0.2071763
-3.247666	sold	-0.3670424
-3.849726	solution	-0.1876553
-3.150756	solve	-0.9788856
-4.150756	solving	-0.1995049
-2.895484	some	-0.3203262
-3.849726	somehow	-0.3514687
-3.849726	someone	-0.3515608
-3.849726	something	-0.1721685
-4.150756	sometimes	-0.1973095
-3.849726	soon	-0.1994123
-3.150756	sorry	-0.2568432
-3.849726	span	-0.3420919
-4.150756	special	-0.2015664
-4.150756	specialized	-0.2003676
-3.548697	specific	-0.268782
-2.645607	spend	-0.5308149
-4.150756	spends	-0.1954767
-3.849726	spent	-0.3503307
-4.150756	spot	-0.1722014
-4.150756	stable	-0.1810443
-4.150756	stand	-0.1997515
-2.872003	standard	-0.4271637
-3.673635	standardized	-0.4840806
-3.849726	standards	-0.1594025
-4.150756	start	-0.2006445
-3.849726	station	-0.1776195
-4.150756	statistic	-0.1722014
-3.548697	statistics	-0.2306966
-3.548697	stay	-0.2236127
-2.478659	still	-0.5680857
-4.150756	store	-0.1722014
-4.150756	strategy	-0.193167
-4.150756	street	-0.1722014
-4.150756	stricken	-0.1749515
-4.150756	structure	-0.1777168
-3.673635	stuck	-0.4705562
-4.150756	stucking	-0.1872431
-4.150756	style	-0.1977433
-3.673635	subway	-0.2708263
-4.150756	subways	-0.1997515
-3.071575	such	-0.2321818
-3.673635	suit	-0.1714782
-3.849726	suitable	-0.1995665
-4.150756	suited	-0.193167
-4.150756	surpass	-0.2012593
-3.071575	surpassed	-0.2836794
-3.849726	surplus	-0.1617976
-4.150756	surplussed	-0.1872431
-3.849726	survey	-0.1917877
-3.071575	system	-0.3441816
-4.150756	systems	-0.1777168
-2.895484	t	-0.2812805
-4.150756	tackle	-0.1995049
-3.071575	taiwan	-0.2833811
-2.311907	take	-0.4159652
-3.849726	taken	-0.3514687
-4.150756	taken-placed	-0.2012593
-3.004628	takes	-0.4544826
-4.150756	tale	-0.1999056
-3.372605	talk	-0.3559093
-3.849726	talking	-0.3500842
-4.150756	target	-0.1962232
-4.150756	targets	-0.1919133
-4.150756	teasing	-0.1749515
-4.150756	tell	-0.193167
-3.247666	terms	-0.944528
-2.606688	than	-0.3135394
-4.150756	thank	-0.195321
-3.849726	thanks	-0.1899945
-2.075209	that	-0.2279458
-1.224929	the	-0.4799033
-2.808334	their	-0.2920247
-3.150756	them	-0.3298165
-2.632242	then	-0.5004467
-2.191715	there	-0.7998159
-3.451787	therefore	-0.283313
-3.150756	these	-0.2959858
-2.168485	they	-0.5784562
-3.673635	thin	-0.1697971
-3.673635	thing	-0.1798519
-3.673635	things	-0.1762875
-3.004628	third	-0.5989858
-3.247666	thirty	-0.3603926
-2.311907	this	-0.4004983
-3.247666	those	-0.2349121
-3.372605	though	-0.3141488
-4.150756	thousand	-0.1997824
-4.150756	threaten	-0.1777168
-3.372605	three	-0.1865763
-3.548697	through	-0.174004
-3.372605	thus	-0.2642757
-3.451787	tigers	-0.267563
-3.849726	till	-0.2002444
-2.527507	time	-0.3538588
-3.849726	times	-0.1625035
-1.714594	to	-0.462272
-4.150756	today	-0.201505
-3.548697	together	-0.3593524
-2.752816	tokyo	-0.4639841
-2.659395	too	-0.8794252
-3.849726	took	-0.1744617
-2.974665	total	-0.3635931
-3.849726	totally	-0.2002137
-4.150756	tourism	-0.1777168
-3.849726	tourists	-0.1765803
-3.673635	trade	-0.1713795
-4.150756	tradition	-0.1919133
-2.281525	traffic	-0.6247553
-3.548697	traffics	-0.2090532
-4.150756	trafic	-0.2004599
-3.451787	train	-0.1300888
-4.150756	trains	-0.1722014
-4.150756	trans	-0.1722014
-3.247666	transport	-0.2535337
-2.559692	transportation	-0.4004313
-4.150756	transportations	-0.2009521
-3.673635	trapped	-0.4705562
-3.004628	travel	-0.2672091
-3.451787	traveling	-0.1999798
-3.071575	trillion	-0.3456886
-4.150756	trips	-0.1896791
-4.150756	trollies	-0.2006445
-4.150756	true	-0.1919133
-3.673635	turn	-0.2872216
-4.150756	turned	-0.2006445
-3.673635	two	-0.4845417
-3.849726	type	-0.1674459
-3.849726	types	-0.1906245
-4.150756	ultimately	-0.2014129
-4.150756	unbalanced	-0.2015971
-4.150756	uncoordinated	-0.1777168
-4.150756	under	-0.2013515
-3.673635	understand	-0.4582646
-4.150756	unified	-0.2015664
-4.150756	unique	-0.2012286
-3.451787	until	-0.3207007
-3.849726	up	-0.186894
-3.849726	updated	-0.1776195
-4.150756	urban	-0.2004292
-4.150756	urgent	-0.1896791
-3.004628	us	-0.9557272
-4.150756	usage	-0.1777168
-2.872003	use	-0.2387757
-3.196514	used	-0.3804074
-3.849726	useful	-0.1771002
-4.150756	users	-0.2012286
-4.150756	ushering	-0.1872431
-3.548697	usually	-0.194417
-3.451787	vacation	-0.1858313
-4.150756	valued	-0.2003368
-4.150756	vehicle	-0.1777168
-3.247666	vehicles	-0.2509575
-2.344576	very	-0.3678955
-4.150756	visitors	-0.1872431
-4.150756	vivid	-0.1896791
-3.004628	volume	-0.3875434
-4.150756	wait	-0.1777168
-4.150756	waiting	-0.1962232
-4.150756	wakened	-0.2013822
-3.247666	want	-0.2890778
-4.150756	wants	-0.1973095
-2.645607	was	-0.2820089
-3.673635	waste	-0.1991346
-3.548697	wasted	-0.3358962
-2.872003	way	-0.5510399
-4.150756	ways	-0.1777168
-2.606688	we	-0.5881155
-4.150756	web	-0.2015971
-3.849726	website	-0.1894267
-4.150756	weight	-0.1872431
-4.150756	weights	-0.1954767
-3.071575	well	-0.247569
-4.150756	well-developed	-0.2004292
-4.150756	well-spread	-0.1722014
-4.150756	wellbeing	-0.1777168
-3.071575	were	-0.1631756
-4.150756	west	-0.1777168
-3.451787	what	-0.1692353
-2.808334	when	-0.9605945
-4.150756	where	-0.195321
-3.673635	whether	-0.4840191
-2.451787	which	-0.4814346
-3.150756	while	-0.178452
-3.673635	who	-0.1975574
-4.150756	whole	-0.2015971
-4.150756	whose	-0.2009521
-3.849726	wide	-0.3514687
-2.046953	will	-0.5335976
-2.517288	with	-0.3787698
-3.849726	within	-0.1992889
-4.150756	witness	-0.1995974
-4.150756	witnessed	-0.2003984
-4.150756	won	-0.199042
-3.372605	work	-0.2429363
-4.150756	works	-0.2011979
-2.688359	world	-0.4815058
-4.150756	worldwide	-0.1777168
-4.150756	worth	-0.2014743
-3.109364	would	-0.2551153
-2.872003	year	-0.3031468
-3.071575	years	-0.6892028
-1.841126	you	-0.8257829
-2.673635	your	-0.5347561
-3.673635	yourself	-0.2695893
-4.150756	yourselves	-0.2001829
-2.451787	yuan	-0.6199958
-4.150756	zero	-0.2015664
-3.849726	zhaoyang	-0.3516836
-2.226477	’	-1.248649
-4.150756	﻿in	-0.2009828

\2-grams:
-0.69897	% ,
-0.3744589	% .	0.08121258
-0.7501225	% and
-2.083367	% as
-2.083367	% growth
-1.607756	% in	-0.08788927
-2.083367	% increase
-1.348325	% of
-2.083367	% to
-1.129124	's how
-1.129124	's people
-1.129124	's reported
-0.6535136	's that	-0.2472332
-3.397234	, 0.271
-3.397234	, 0.281
-3.397234	, 1
-3.397234	, 1.43
-2.662192	, 163
-3.397234	, 2.7
-3.397234	, 20
-3.397234	, 20000
-2.662192	, 2015	0.1252931
-3.397234	, 207
-2.921623	, 271	-0.1456021
-3.397234	, 3.5
-2.921623	, 30	-0.1507644
-3.397234	, 51.2
-3.397234	, 808
-1.552106	, </s>
-1.605352	, a	-0.04675654
-3.397234	, about…
-2.462479	, according	1.107478
-2.662192	, actually
-1.853136	, after	-0.1407968
-3.397234	, airport
-2.662192	, all
-3.397234	, also
-3.397234	, although
-2.387687	, among	-0.0149058
-2.662192	, an	-0.08556029
-1.0428	, and	-0.02177575
-2.387687	, as	-0.1182581
-2.662192	, at
-3.397234	, automobile
-3.397234	, average
-3.397234	, averagely
-3.397234	, be
-2.06399	, because	-0.05245563
-3.397234	, becoming
-2.662192	, beijing	0.1224131
-3.397234	, besides
-3.397234	, between
-2.921623	, billion
-1.56914	, but	0.0837139
-3.397234	, buy
-2.662192	, by	-0.03418867
-2.490007	, can	-0.05005088
-2.662192	, cars	-0.05537797
-3.397234	, chaoyang
-3.397234	, city
-3.397234	, common
-2.490007	, companies	-0.04829608
-3.397234	, compared
-3.397234	, competence
-2.921623	, competition	-0.2058998
-3.397234	, developing
-2.921623	, do	0.3473995
-3.397234	, dong
-2.662192	, due	0.8019546
-3.397234	, during
-3.397234	, economy
-3.397234	, especially
-2.462479	, even	0.0001326576
-2.06399	, every	-0.01987015
-2.921623	, factories
-3.397234	, factory
-3.397234	, fashionally
-3.397234	, feet
-2.921623	, finland
-1.887898	, for	0.04297741
-2.921623	, germany
-3.397234	, global
-3.397234	, globally
-3.397234	, greece
-2.490007	, has
-3.397234	, high
-3.397234	, hong
-2.921623	, how
-2.06399	, however	-0.03998387
-2.462479	, i	-0.103399
-1.475718	, if	0.04125082
-1.423012	, in	-0.008646041
-3.397234	, including
-3.397234	, information
-3.397234	, instead
-2.921623	, internet	-0.08229716
-3.397234	, ireland
-2.387687	, is	-0.06337209
-3.397234	, israel
-1.323627	, it	-0.1625196
-2.462479	, its
-3.397234	, japan
-3.397234	, june
-3.397234	, just
-3.397234	, less
-3.397234	, let
-3.397234	, like
-3.397234	, lower
-3.397234	, make
-2.662192	, making	-0.004607245
-2.921623	, may	-0.2187739
-2.921623	, maybe
-3.397234	, meet
-3.397234	, might
-3.397234	, million
-3.397234	, mobile
-3.397234	, more
-3.397234	, multiple
-3.397234	, netizens
-3.397234	, newly-launched
-2.662192	, no	-0.0397462
-2.462479	, nowadays
-2.662192	, of
-3.397234	, on
-2.06399	, one	-0.04192714
-2.462479	, or
-3.397234	, others
-2.921623	, our
-3.397234	, pakistan
-3.397234	, passing
-1.925687	, people	-0.02037573
-3.397234	, personal
-3.397234	, personalization
-3.397234	, popular
-3.397234	, portugal
-3.397234	, portuguese
-3.397234	, post
-3.397234	, primary
-3.397234	, private
-3.397234	, produce
-3.397234	, producers
-3.397234	, product
-2.462479	, public	-0.02762088
-3.397234	, ranking
-3.397234	, ranks
-3.397234	, reaching
-3.397234	, rising
-3.397234	, run
-2.921623	, same	-0.2270089
-3.397234	, seldom
-3.397234	, several
-1.96708	, shenzhen	-0.02596439
-3.397234	, shoe
-3.397234	, shoes
-3.397234	, should
-3.397234	, similar
-3.397234	, small
-1.820952	, so	-0.02318031
-3.397234	, sold
-3.397234	, somehow
-3.397234	, sometimes
-2.387687	, sorry	-0.05926928
-3.397234	, statistic
-3.397234	, statistics
-3.397234	, still
-2.462479	, such
-2.662192	, take
-3.397234	, thank
-2.921623	, thanks
-2.012837	, that	0.007035829
-1.008038	, the	-0.06414369
-3.397234	, their
-1.736631	, then	0.03526127
-1.333611	, there	-0.0353809
-1.448566	, they	0.002695888
-2.490007	, this	-0.07748912
-2.662192	, those	-0.08739571
-3.397234	, though
-3.397234	, three
-2.06399	, to
-2.387687	, tokyo	-0.03295358
-3.397234	, too
-3.397234	, traffic
-3.397234	, transportation
-3.397234	, until
-3.397234	, usually
-3.397234	, very
-2.921623	, was
-2.387687	, we	0.07662522
-3.397234	, what
-1.925687	, when	0.4119881
-2.921623	, whether	0.2302803
-1.76296	, which	0.1217483
-3.397234	, who
-2.662192	, will
-2.462479	, with	-0.09756419
-2.921623	, within
-1.226717	, you	-0.2229178
-3.397234	, your
-0.0865776	. </s>
-2.375068	. a
-3.309824	. according
-3.309824	. all
-3.309824	. although
-1.34819	. and	-0.09928858
-3.309824	. as
-3.309824	. at
-2.834213	. because
-3.309824	. beijing
-1.925427	. but	0.01706963
-2.402597	. for	0.0718329
-3.309824	. here
-2.402597	. however	0.04491827
-1.925427	. if	-0.5898255
-2.834213	. in	-0.08788927
-2.574782	. internet	0.02007541
-1.925427	. it	-0.04162015
-2.574782	. people
-3.309824	. person
-3.309824	. previously
-3.309824	. resulting
-3.309824	. shenzhen
-1.765726	. so	-0.05252996
-2.834213	. some	-0.2270089
-3.309824	. t
-2.300277	. that	-0.1207937
-2.574782	. the
-3.309824	. then
-2.574782	. there
-2.834213	. therefore	-0.1456021
-2.834213	. they
-2.834213	. though
-3.309824	. thus
-3.309824	. tokyo
-3.309824	. we
-3.309824	. which
-3.309824	. while
-3.309824	. with
-0.2971723	0.163 billion	-0.1179156
-1.032214	0.163 small
-0.4301544	0.231 ,
-0.1722336	0.27 billion
-0.4301544	0.271 billion
-0.4301544	0.281 ,
-0.4301544	0.3 trillion
-0.4301544	0.5 trillion
-0.05115252	1 hour	0.02937687
-0.4301544	1.4 trillion
-0.1722336	1.43 trillion
-0.1722336	1.431 trillion
-0.2555736	1.63 billion	-0.2202882
-0.04139268	10 %	0.1739716
-0.4301544	10.25 %
-0.04575749	10.5 %	-0.01407201
-0.4301544	11.1 %
-0.9072757	116 livelihood
-0.9072757	116 people
-0.9072757	116 products
-0.4301544	133 million
-0.4301544	140 million
-0.7311844	143 million
-0.7311844	143 trillion
-0.2218975	15.1 %	0.01209703
-0.4301544	161 issues
-0.7742936	163 billion	-0.45795
-1.509336	163 cars
-0.2340832	163 million	-0.07616821
-1.509336	163 of
-0.4301544	1900 ,
-0.7311844	2 hours
-0.7311844	2 trillion
-0.4301544	2.27 million
-0.9072757	2.7 billion
-0.9072757	2.7 for
-0.9072757	2.7 million
-0.4301544	2.71 billion
-0.7311844	20 %
-0.7311844	20 minutes
-0.4301544	20.5 %
-0.4316649	200 ,
-0.9072757	200 million
-0.9959363	20000 dollars
-0.4620003	20000 us	-0.1760913
-0.736505	20000 yuan	-0.3474634
-0.4301544	2003 ,
-0.4301544	2004 the
-0.148939	2013 ,	-0.3615232
-1.921516	2013 .
-1.921516	2013 is
-1.921516	2013 registered
-1.921516	2013 report
-1.445905	2013 surpassed
-1.445905	2013 the	-0.2447602
-1.921516	2013 will
-0.4206076	2014 ,	-0.1344339
-1.430154	2014 about
-1.430154	2014 is
-1.430154	2014 it
-1.430154	2014 shenzhen
-0.1205739	2015 ,	-0.3776261
-1.948668	2015 every
-1.213626	2015 in	0.0144833
-1.473058	2015 it
-1.948668	2015 the
-1.948668	2015 there
-0.1722336	2016 ,
-0.7311844	207 million
-0.7311844	207 thousand
-0.4316649	217 million
-0.9072757	217 vehicles
-0.4301544	23 %
-0.4301544	23.45 %
-0.09745892	23.5 %	-0.06924692
-0.4301544	27 billion
-0.4301544	27.1 billion
-0.09745892	270 million	-0.09638191
-0.4301544	2700 ,
-0.6535136	271 billion
-0.3940824	271 million
-0.4301544	3.4 ,
-0.05115252	3.5 %	-0.7160034
-1.384397	3.5 .
-1.626642	30 billion
-2.102252	30 hours
-0.6720979	30 million	-0.16382
-0.3933443	30 minutes	-0.01041454
-2.102252	30 rmb
-0.7178553	30 years	-0.0110746
-1.195025	30 yuan	0.05782218
-0.05115252	300 billion	-0.1585168
-0.4301544	3000 billion
-0.4301544	3300 billion
-0.4301544	3rd around
-1.032214	40th around
-0.2971723	40th in	-0.3233596
-0.2555736	5.1 %
-0.7311844	500 ,
-0.7311844	500 million
-0.4301544	51 %
-0.4301544	51.2 trillion
-0.1722336	530 billion	-0.04755262
-0.4301544	537.3 billion
-0.4301544	537.36 billion
-0.4301544	537.5 billion
-0.2555736	537.6 billion
-0.4301544	537.61 billion
-0.4301544	61.3 billion
-0.4316649	8 million
-0.9072757	8 yuan
-0.4301544	8.08 yuan
-1.845128	808 a
-1.845128	808 per
-0.9379008	808 rmb	-0.04607136
-0.1362197	808 yuan	-0.1253172
-0.7056516	<s> .	-1.370995
-2.511354	<s> a	-0.4465503
-1.73706	<s> according	0.30103
-3.246396	<s> after
-3.246396	<s> almost
-1.971143	<s> also
-2.770785	<s> among
-0.7555435	<s> and	-0.2281442
-3.246396	<s> another
-2.339169	<s> as	-0.02379135
-2.31164	<s> at	-0.1742748
-3.246396	<s> because
-3.246396	<s> beijing
-3.246396	<s> besides
-1.33912	<s> but	-0.1248479
-2.770785	<s> by
-3.246396	<s> compared
-2.770785	<s> currently
-3.246396	<s> due
-3.246396	<s> every
-3.246396	<s> expected
-1.225177	<s> for	-1.133356
-2.770785	<s> from
-3.246396	<s> he
-3.246396	<s> here
-1.670113	<s> however	-0.04492408
-1.612121	<s> if	0.2039099
-1.016901	<s> in	-0.1107123
-3.246396	<s> international
-2.511354	<s> internet	0.02007541
-1.73706	<s> it	-0.6232493
-3.246396	<s> its
-3.246396	<s> latest
-3.246396	<s> like
-3.246396	<s> many
-2.236849	<s> now	-0.0344177
-1.816241	<s> nowadays	0.09530257
-3.246396	<s> of
-2.770785	<s> on
-3.246396	<s> ranks
-3.246396	<s> shenzhen
-3.246396	<s> similar
-1.272173	<s> so	0.01905352
-2.770785	<s> such
-1.73706	<s> take	-0.1913102
-2.339169	<s> that	-0.1676349
-1.100238	<s> the	-0.1205395
-2.770785	<s> then
-2.236849	<s> there	-0.03981464
-2.770785	<s> therefore	-0.1456021
-2.770785	<s> they	-0.1808743
-3.246396	<s> things
-1.64015	<s> this	-1.027438
-2.31164	<s> thus
-2.770785	<s> till
-2.511354	<s> to
-2.511354	<s> until	0.07215171
-3.246396	<s> well
-2.770785	<s> when
-2.770785	<s> which	-0.2449076
-2.511354	<s> while
-3.246396	<s> with
-3.246396	<s> ﻿in
-0.4301544	? its
-1.821781	a ,	-0.2050231
-2.729007	a 15.1
-2.729007	a 30
-2.729007	a 5.1
-2.729007	a 808
-2.729007	a a
-2.729007	a best-selling
-2.729007	a bombaster
-2.253397	a bus	-0.1919161
-2.253397	a capacity
-2.729007	a car
-2.253397	a cellphone
-2.253397	a city
-2.729007	a common
-2.729007	a competition
-2.253397	a complete
-2.729007	a cost
-1.993965	a country
-2.729007	a custom
-2.253397	a development	-0.1506
-2.253397	a efficient	-0.03317735
-2.729007	a factory
-2.729007	a fairly
-2.729007	a fast
-1.993965	a few	-0.005190015
-2.729007	a foundation
-2.729007	a funny
-2.729007	a gdp
-2.729007	a global
-1.794252	a good
-2.253397	a growth
-2.729007	a hot-seller
-1.344611	a joke	0.001562491
-2.729007	a journey
-1.821781	a kind	0.6114939
-2.729007	a lack
-2.729007	a landscape
-2.729007	a latest
-2.253397	a leader
-2.729007	a level
-1.298853	a lot	0.09714592
-2.729007	a low
-2.253397	a manufacturer
-2.729007	a map
-1.794252	a mobile	-0.1692017
-2.729007	a month
-2.253397	a new
-2.729007	a one-ground
-2.729007	a out-of-date
-1.794252	a pair	0.3892855
-2.729007	a pastiche
-1.993965	a phone
-2.729007	a place
-1.794252	a popular	-0.08411995
-2.729007	a practice
-2.729007	a price
-2.253397	a problem	-0.1861071
-1.0201	a product	0.03492953
-2.729007	a products
-2.729007	a propelled
-2.729007	a proper
-2.253397	a public
-2.729007	a really
-2.729007	a recently
-2.729007	a report
-2.729007	a saying
-2.729007	a serious
-2.729007	a severe
-1.344611	a shoe	-0.06770235
-1.794252	a shoes	-0.1260757
-1.794252	a short	-0.1456021
-2.253397	a small
-2.253397	a smartphone
-2.253397	a standard
-2.729007	a standardized
-2.729007	a suitable
-2.729007	a survey
-2.729007	a tale
-2.729007	a third
-2.729007	a traffic
-0.9009131	a very	0.0456709
-2.253397	a well
-2.729007	a world
-1.702732	about ,
-2.178342	about .
-2.178342	about 0.163
-2.178342	about 1
-1.702732	about 10	0.7867321
-2.178342	about 133
-2.178342	about 163
-2.178342	about 200
-2.178342	about 20000
-2.178342	about 207
-1.702732	about 271	-0.03022087
-2.178342	about 3.5
-1.4433	about 30	0.07265185
-2.178342	about 3300
-2.178342	about 3rd
-2.178342	about 40th
-2.178342	about 537.5
-2.178342	about 537.6
-1.702732	about 8	-0.05392271
-0.845098	about 808	0.5086634
-2.178342	about a
-2.178342	about beijing
-2.178342	about fortieth
-2.178342	about in
-2.178342	about its
-2.178342	about more
-2.178342	about on
-2.178342	about one
-0.6342447	about the	-0.4896883
-1.702732	about traffic
-0.4301544	about… </s>
-0.4301544	accelerating .
-0.4301544	accomplishment in
-1.845128	according their
-0.01703334	according to	-0.5938796
-0.2555736	account for
-0.4301544	achieve equal
-0.4301544	acquire the
-0.7311844	actions in
-0.7311844	actions that
-0.2555736	activities .	0.4882881
-1.544098	actually at
-0.6093423	actually changed	-0.1369611
-1.544098	actually hong
-1.544098	actually in
-1.068487	actually increase	-0.1919161
-1.544098	actually people
-1.544098	actually reached
-1.544098	actually that
-1.544098	actually this
-0.4301544	adaption forces
-0.4301544	add by
-0.4301544	added by
-0.4301544	addition ,
-0.7311844	advanced and
-0.7311844	advanced traffic
-0.7311844	advantages in
-0.7311844	advantages of
-1.935304	after 2
-1.935304	after 51
-1.459694	after a
-0.4637573	after an	-0.6746106
-1.935304	after an-hour
-0.6600519	after another	0.2218263
-1.935304	after it
-1.200262	after one	-0.2109293
-1.459694	after several
-1.935304	after some
-1.935304	after two
-1.935304	after you
-0.9087861	age ,
-0.4496414	age .	0.4354626
-0.9087861	age has
-1.384397	age shapes
-0.4301544	agent .
-0.4301544	ages which
-0.7311844	aggregate has
-0.7311844	aggregate registered
-1.129124	ago ,
-0.6535136	ago .
-1.129124	ago but
-1.129124	ago you
-0.4301544	aim for
-0.4301544	aims in
-0.9545436	airport ,
-1.430154	airport and
-1.430154	airport capacity
-1.430154	airport facility
-1.430154	airport has
-1.430154	airport in
-1.430154	airport output
-1.430154	airport reached
-1.430154	airport was
-0.4301544	airports with
-1.772577	all ,
-1.296966	all around	0.3193707
-1.772577	all companies
-1.772577	all customers
-0.8378216	all of	0.001012243
-1.772577	all sizes
-0.4393327	all the	-0.04691575
-1.772577	all their
-1.296966	all these
-1.772577	all types
-0.4301544	all-round by
-0.4301544	alleviate the
-0.4316649	almost 30	-0.02972072
-0.9072757	almost a
-1.208306	already become
-1.208306	already exceeded
-1.208306	already grow
-1.208306	already has
-1.208306	already higher
-1.208306	already overtaken
-1.075183	also ,	-0.1071435
-2.009938	also 116
-2.009938	also a
-2.009938	also according
-2.009938	also added
-2.009938	also another
-1.274896	also be
-2.009938	also choose
-2.009938	also close
-1.534327	also has
-2.009938	also helpful
-2.009938	also improved
-1.274896	also in
-2.009938	also invest
-2.009938	also it
-2.009938	also makes
-2.009938	also need
-2.009938	also outpacing
-2.009938	also produce
-2.009938	also realized
-2.009938	also shorten
-2.009938	also show
-2.009938	also shows
-2.009938	also surpassed
-1.534327	also take	-0.1866635
-1.534327	also the	-0.2447602
-2.009938	also there
-2.009938	also witness
-0.3940824	although it	0.002613977
-1.129124	although there
-1.129124	although they
-0.4301544	altogether in
-1.129124	always be
-1.129124	always choose
-1.129124	always combined
-1.129124	always rush
-1.129124	always used
-0.4301544	am in
-0.4301544	ameliorate the
-1.877312	among all
-1.877312	among consumers
-1.401702	among different
-1.401702	among enterprises
-1.877312	among every
-1.877312	among manufacturers
-1.14227	among other
-1.877312	among others
-1.401702	among people
-0.8677657	among the	-0.06785321
-0.8677657	among them	-0.01207429
-1.401702	among which
-0.6535136	amount .	0.4882881
-1.129124	amount interconnected
-0.6535136	amount of
-0.4301544	amounted to
-1.774088	an effective	-0.03022087
-1.774088	an efficient
-0.6734159	an example	0.321472
-0.2174839	an hour	0.1887126
-2.249698	an important
-1.774088	an increase
-2.249698	an interesting
-2.249698	an international
-2.249698	an iphone
-2.249698	an outdate
-2.249698	an overall
-0.4301544	an-hour bus
-2.004939	and ,
-3.014486	and 163
-2.538875	and 30	-0.02972072
-2.538875	and a
-2.538875	and about
-3.014486	and accomplishment
-2.279444	and according	0.9248425
-2.279444	and actually
-1.681241	and after	-0.05319645
-3.014486	and airport
-1.739233	and also	-0.04598758
-3.014486	and although
-2.004939	and among	-0.1160308
-2.538875	and an	0.1499101
-1.50515	and another	-0.3286851
-3.014486	and areas
-3.014486	and as
-3.014486	and back
-3.014486	and before
-2.279444	and between	0.148742
-3.014486	and big
-3.014486	and business
-3.014486	and buy
-2.538875	and by
-3.014486	and can
-2.279444	and cars
-3.014486	and communicate
-2.538875	and companies
-3.014486	and competition
-3.014486	and comprehended
-3.014486	and connection
-2.538875	and consumers
-3.014486	and convenient
-3.014486	and cpi
-2.538875	and current
-3.014486	and customers
-3.014486	and customized
-3.014486	and disposal
-3.014486	and during
-3.014486	and enable
-3.014486	and especially
-2.538875	and every
-3.014486	and export
-3.014486	and factories
-2.538875	and finland	-0.01165904
-2.107259	and for	-0.105691
-3.014486	and foundation
-3.014486	and from
-2.07973	and greece	-0.03391793
-2.279444	and has
-2.07973	and i
-2.107259	and if	-0.1527132
-2.107259	and import	-0.03863395
-3.014486	and important
-1.09297	and in	-0.1551776
-3.014486	and increase
-3.014486	and individual
-2.538875	and industry
-2.538875	and iran
-2.538875	and is
-1.305578	and it	0.1395009
-2.107259	and its	-0.1462958
-3.014486	and joined
-3.014486	and learn
-3.014486	and leisure
-3.014486	and lessing
-3.014486	and let
-3.014486	and locals
-3.014486	and made
-3.014486	and mainly
-2.538875	and make
-3.014486	and making
-3.014486	and manufacturers
-3.014486	and many
-3.014486	and may
-3.014486	and medium
-3.014486	and meet
-1.681241	and more	-0.1432662
-3.014486	and most
-3.014486	and motor
-3.014486	and not
-2.279444	and now
-2.538875	and nowadays
-3.014486	and one
-2.279444	and other
-3.014486	and our
-3.014486	and out-dated
-3.014486	and pakestine
-2.07973	and pakistan	0.0003711879
-3.014486	and palestin
-3.014486	and palestine
-3.014486	and parkestan
-1.630089	and people	-0.1635414
-3.014486	and per
-3.014486	and portuguese
-3.014486	and private
-3.014486	and production
-2.538875	and products	-0.2074068
-3.014486	and projects
-3.014486	and public
-3.014486	and railway
-3.014486	and ranks
-3.014486	and reached
-3.014486	and right
-2.279444	and shenzhen
-3.014486	and sixty-three
-3.014486	and size
-3.014486	and smaller
-2.538875	and so
-3.014486	and social
-2.538875	and some
-3.014486	and still
-3.014486	and surpass
-2.07973	and take	-0.04092874
-2.107259	and that	-0.2143189
-0.9932666	and the	-0.07721491
-1.630089	and then	-0.06674052
-2.107259	and there	-0.07028826
-3.014486	and therefore
-3.014486	and these
-1.438203	and they	-0.005614221
-3.014486	and thirty
-1.470388	and this	0.1031729
-3.014486	and though
-3.014486	and thus
-2.279444	and to
-3.014486	and total
-2.538875	and traveling
-3.014486	and when
-2.107259	and which	-0.05615868
-2.538875	and with
-1.739233	and you	-0.1064292
-1.556604	another ,
-2.032214	another 1
-2.032214	another an
-2.032214	another breakthrough
-2.032214	another country
-2.032214	another destination
-1.556604	another example
-0.39794	another hour	0.05735236
-2.032214	another locality
-2.032214	another major
-0.60206	another one	-0.7207984
-1.556604	another place	-0.1666484
-2.032214	another round
-0.4301544	anticipated cellphone
-0.9072757	any longer
-0.9072757	any more
-0.9072757	any sense
-0.4301544	applied in
-0.4301544	appropriate for
-0.7311844	approximately be
-0.7311844	approximately the
-1.45444	are ,	-0.2868586
-1.913585	are 163
-2.389196	are 200
-1.913585	are 217
-2.389196	are 27
-2.389196	are 27.1
-1.913585	are 270	0.4421207
-2.389196	are 271
-2.389196	are 30
-2.389196	are 61.3
-1.913585	are a	-0.2322693
-1.481969	are about
-2.389196	are also
-2.389196	are always
-2.389196	are around
-2.389196	are at
-2.389196	are automobile
-1.913585	are cars	-0.119962
-1.913585	are facing
-1.654154	are going
-0.7829502	are in	-0.01836351
-2.389196	are largely
-2.389196	are mainly
-1.654154	are many
-1.654154	are more
-2.389196	are most
-1.654154	are not
-2.389196	are on
-2.389196	are one
-2.389196	are other
-2.389196	are over
-2.389196	are private
-2.389196	are private-owned
-2.389196	are running
-0.845098	are still	-0.3264521
-1.913585	are stuck	0.2302803
-2.389196	are there
-1.913585	are too	-0.1250267
-2.389196	are totally
-2.389196	are used
-1.913585	are very
-1.333244	area ,
-0.8576336	area .	0.4882881
-1.333244	area and
-1.333244	area have
-0.8576336	area of
-1.333244	area that
-0.7311844	areas ,
-0.7311844	areas that
-1.606246	around .
-1.606246	around 2700
-1.606246	around 3.5
-1.606246	around 40th
-0.1346986	around the	-0.9829511
-0.7996417	arrive at
-0.3680255	arrive in	-0.08379804
-2.215484	as 10
-2.215484	as 10.5
-2.215484	as 116
-2.215484	as 2014
-2.215484	as 3.4
-2.215484	as 3.5
-2.215484	as 808
-1.480442	as a	-0.149858
-0.6713865	as an	-1.010403
-2.215484	as equal
-2.215484	as far
-2.215484	as finland
-1.480442	as for
-2.215484	as if
-2.215484	as in
-2.215484	as ireland
-2.215484	as many
-2.215484	as more
-2.215484	as much
-2.215484	as new
-2.215484	as other
-2.215484	as our
-2.215484	as outdate
-2.215484	as private
-2.215484	as than
-0.8822398	as the	-0.149047
-2.215484	as their
-1.739873	as we
-0.8822398	as well	-0.216348
-2.215484	as when
-0.05799195	asia .	-0.1847778
-0.9072757	asian dragons
-0.9072757	asian four
-0.9072757	asian tigers
-0.4301544	aside will
-0.4301544	aspired for
-0.4301544	associated .
-0.4316649	asymmetry .	0.4882881
-0.9072757	asymmetry shows
-2.15443	at 10
-2.15443	at 10.5
-2.15443	at 23.5
-2.15443	at 3.5
-1.419388	at 30	-0.1236461
-2.15443	at 40th
-2.15443	at 537.36
-1.247203	at a
-2.15443	at about
-2.15443	at another
-2.15443	at both
-1.419388	at chaoyang	0.4413389
-2.15443	at crescendo
-1.67882	at different	-0.2158866
-2.15443	at france
-2.15443	at german
-2.15443	at in
-2.15443	at least
-2.15443	at low
-1.67882	at one
-2.15443	at over
-2.15443	at poland
-2.15443	at present
-1.67882	at that
-0.5781478	at the	-0.1742615
-2.15443	at thirty
-1.67882	at very	-0.232413
-2.15443	at where
-1.208306	automobile ,
-0.7326949	automobile cars
-1.208306	automobile have
-1.208306	automobile in
-1.208306	automobile number
-0.6093423	automobiles ,	-0.09705262
-1.544098	automobiles altogether
-1.068487	automobiles for
-0.8090557	automobiles in	-0.1300612
-1.544098	automobiles including
-1.544098	automobiles never
-1.544098	automobiles to
-0.4301544	autumn there
-0.7311844	available .
-0.7311844	available to
-0.9072757	average ,
-0.9072757	average gdp
-0.9072757	average of
-0.4301544	averagely ,
-0.4301544	avoid take
-0.4301544	back in
-0.4301544	background of
-0.7311844	bad .
-0.7311844	bad traffic
-0.4301544	base in
-1.032214	basic ,
-1.032214	basic for
-1.032214	basic infrastructure
-1.032214	basic of
-0.4301544	basis of
-2.275253	be ,
-1.799642	be 10	0.7867321
-2.275253	be 161
-2.275253	be 808
-1.54021	be a
-1.799642	be about
-2.275253	be associated
-2.275253	be at
-2.275253	be available
-1.799642	be carried	0.09714589
-2.275253	be compared
-2.275253	be conducted
-2.275253	be considered
-2.275253	be done
-2.275253	be enervate
-2.275253	be fashion
-2.275253	be fast
-2.275253	be faster
-2.275253	be implemented
-0.69897	be in	-0.1014622
-1.799642	be increase
-2.275253	be increased
-2.275253	be increasing
-2.275253	be kept
-2.275253	be lots
-1.54021	be maintained	0.04844986
-2.275253	be met
-2.275253	be more
-2.275253	be once
-2.275253	be oriented
-2.275253	be outdate
-2.275253	be outdated
-2.275253	be outpaced
-2.275253	be over-dated
-2.275253	be properly
-2.275253	be seen
-1.54021	be sold	0.06919523
-1.799642	be someone	0.09714589
-2.275253	be the
-1.54021	be trapped	-0.005190015
-2.275253	be used
-1.799642	be very
-2.275253	be wasted
-0.7311844	became outdated
-0.7311844	became very
-1.708908	because if
-1.708908	because internets
-1.708908	because is
-1.708908	because it
-1.708908	because more
-0.973866	because of	-0.3801928
-1.708908	because that
-0.801681	because the	-0.08329721
-1.708908	because there
-0.973866	because they	-0.4809051
-1.708908	because we
-1.576283	become ,
-0.6690555	become a
-1.576283	become basis
-1.576283	become fierce
-1.576283	become more
-1.576283	become much
-1.576283	become out-fashioned
-1.576283	become outdated
-1.576283	become the
-1.576283	become very
-0.7311844	becomes a
-0.7311844	becomes more
-0.5566036	becoming more	-0.1789398
-1.032214	becoming smaller
-1.032214	becoming uncoordinated
-1.828094	been declined
-1.828094	been diminished
-1.828094	been expanded
-1.352484	been greatly
-1.352484	been increased
-1.828094	been largely
-1.828094	been launched
-1.828094	been more
-1.828094	been other
-1.828094	been outdated
-1.828094	been over
-1.828094	been proved
-1.828094	been quickly
-1.828094	been quite
-1.352484	been reduced	-0.1456021
-1.828094	been set
-1.352484	been shortened
-1.828094	been some
-1.828094	been the
-1.828094	been to
-1.828094	been very
-0.7996417	before ,
-0.5402104	before .	0.2528177
-1.275252	before with
-1.275252	before you
-0.5566036	behind .	0.4882881
-0.5566036	behind israel	-0.04729185
-0.3290587	beijing ,	-0.09312797
-0.60206	beijing .	0.0159499
-1.501292	beijing and
-1.301579	beijing chaoyang	0.2861311
-2.236334	beijing china
-1.760724	beijing city
-2.236334	beijing has
-2.236334	beijing if
-2.236334	beijing is
-2.236334	beijing now
-2.236334	beijing people
-2.236334	beijing spend
-2.236334	beijing traffic
-2.236334	beijing ’
-0.7311844	beijng ,
-0.7311844	beijng .
-0.4301544	being the
-0.4301544	below some
-0.4301544	benign combination
-0.4316649	besides ,
-0.9072757	besides this
-0.4301544	best-selling product
-0.7311844	better .
-0.7311844	better way
-1.810366	between businesses
-1.334755	between companies
-1.334755	between different
-1.075324	between enterprises	-0.07233107
-1.810366	between factories
-0.30103	between people	-0.9400594
-1.075324	between the
-1.068487	big ,
-1.544098	big as
-1.544098	big market
-0.2688453	big or	-0.09469739
-1.544098	big performance
-1.544098	big sized
-1.032214	bigger ,
-1.032214	bigger or
-0.5566036	bigger than
-1.146177	billion ,
-1.118648	billion .	0.4354529
-1.577793	billion and
-2.053404	billion automobile
-2.053404	billion automobiles
-1.146177	billion cars
-1.577793	billion dollars	-0.04078072
-1.577793	billion mobile	-0.2084492
-2.053404	billion motor
-1.577793	billion of
-2.053404	billion people
-1.577793	billion rmb
-2.053404	billion to
-1.118648	billion us	0.361511
-0.6690068	billion yuan	0.06094143
-0.4301544	blog in
-0.4301544	bombaster but
-0.4301544	both airport
-0.4301544	bought ,
-0.4301544	brand has
-0.4316649	breakthrough in
-0.9072757	breakthrough was
-0.4301544	brought reform
-0.4301544	budget for
-0.4301544	build the
-0.8712036	bus ,
-1.606246	bus .
-1.606246	bus and
-1.130635	bus for
-1.606246	bus from
-1.606246	bus in
-1.606246	bus map
-0.8712036	bus or
-1.130635	bus to	-0.2528906
-0.4301544	buses ,
-0.7326949	business actually	-0.2158866
-1.208306	business have
-0.7326949	business if	0.1555139
-1.208306	business turn
-0.4301544	businesses .
-1.829605	but after
-2.305216	but although
-1.829605	but an	0.1499101
-2.305216	but and
-2.305216	but as
-2.305216	but at
-2.305216	but for
-2.305216	but further
-2.305216	but however
-2.305216	but i
-1.029963	but if	0.2614717
-0.8750613	but in	0.02091829
-2.305216	but internet
-1.829605	but is
-1.397989	but it
-2.305216	but maybe
-1.570174	but more
-1.570174	but now
-2.305216	but nowadays
-2.305216	but people
-2.305216	but right
-2.305216	but surpassed
-1.829605	but that
-0.8750613	but the	-0.08063601
-2.305216	but their
-2.305216	but then
-2.305216	but these
-1.37046	but they
-1.570174	but this
-2.305216	but we
-2.305216	but when
-2.305216	but while
-2.305216	but whose
-2.305216	but with
-0.6093423	buy a	-0.3004547
-1.068487	buy all	-0.1864891
-0.8090557	buy cars
-1.544098	buy other
-1.544098	buy private
-1.544098	buy that
-1.544098	buy the
-0.7311844	buying .
-0.7311844	buying a
-2.053404	by ,
-1.318362	by 10	0.5512618
-2.053404	by 10.25
-1.146177	by 10.5	0.5701013
-2.053404	by 11.1
-1.577793	by 15.1	0.1432064
-2.053404	by 20.5
-1.577793	by 23.5	0.4421207
-2.053404	by 3.5
-2.053404	by as
-2.053404	by individuals
-2.053404	by ireland
-1.577793	by june	-0.1201614
-2.053404	by local
-2.053404	by making
-2.053404	by millions
-2.053404	by now
-1.577793	by other
-2.053404	by others
-2.053404	by people
-2.053404	by shenzhen
-0.6232493	by the	-0.1170684
-2.053404	by yourself
-0.4301544	calculation it
-0.4301544	called the
-0.4301544	came outdated
-2.398637	can ,
-2.398637	can .
-2.398637	can achieve
-2.398637	can also
-2.398637	can ameliorate
-1.065393	can be	-0.08313682
-1.923027	can buy	-0.2158866
-2.398637	can change
-1.923027	can communicate
-1.923027	can counted	-0.05392271
-2.398637	can do
-2.398637	can draw
-2.398637	can eventually
-1.463882	can go	-0.07012516
-2.398637	can have
-1.923027	can know
-2.398637	can make
-1.663595	can meet
-1.923027	can no	-0.1172784
-0.4771213	can not	-0.02066521
-1.49141	can only	-0.06003944
-1.663595	can produce
-2.398637	can product
-2.398637	can run
-2.398637	can search
-1.923027	can see
-1.923027	can sell
-2.398637	can solve
-1.923027	can still
-2.398637	can take
-2.398637	can travel
-2.398637	can use
-1.49141	can ’	-0.3316942
-1.333244	capacity ,
-0.8576336	capacity around	0.3193707
-1.333244	capacity has
-1.333244	capacity in
-0.5982023	capacity of
-1.544098	capita ,
-1.544098	capita .
-1.544098	capita city
-0.6368708	capita gdp	0.02225201
-1.068487	capita has	-0.1956827
-1.068487	capita of	-0.2124346
-1.544098	capita shenzhen
-1.333244	car ,
-1.333244	car .
-1.333244	car for
-0.8576336	car in
-1.333244	car is
-1.333244	car per
-1.333244	car transportation
-0.4301544	cares about
-0.7311844	cargo handled
-0.7311844	cargo handling
-0.2555736	carried out
-0.2555736	carries about
-0.69897	cars ,	-0.1512474
-0.5740313	cars .	-0.4611714
-1.732695	cars and
-1.27355	cars are
-2.208306	cars but
-1.301079	cars for	-0.006160133
-2.208306	cars have
-0.8750613	cars in	-0.1187192
-2.208306	cars included
-2.208306	cars now
-2.208306	cars of
-2.208306	cars purchased
-2.208306	cars represent
-2.208306	cars reserved
-2.208306	cars than
-1.27355	cars to	-0.1041275
-0.9072757	case ,
-0.9072757	case in
-0.9072757	case occur
-0.4301544	cause the
-0.7311844	caused average
-0.7311844	caused heated
-0.4301544	causing the
-1.544098	cellphone ,
-1.068487	cellphone .
-1.068487	cellphone as	-0.1505719
-1.544098	cellphone brand
-1.544098	cellphone circle
-1.544098	cellphone it
-1.544098	cellphone may
-1.068487	cellphone that	-0.2505893
-1.068487	cellphone was
-0.7311844	cellphones ,
-0.7311844	cellphones .
-1.032214	change .
-1.032214	change that
-0.5566036	change the
-0.9255613	changed all	0.04400668
-1.660603	changed due
-0.9255613	changed everything	-0.005190015
-1.660603	changed in
-1.660603	changed our
-1.660603	changed place
-1.660603	changed such
-1.184993	changed taken	0.09714589
-1.660603	changed the
-1.184993	changed this
-1.660603	changed totally
-0.4301544	changes the
-1.402683	chaoyang ,	-0.1110358
-1.230498	chaoyang .	0.5168002
-1.662114	chaoyang and
-0.1277866	chaoyang district	0.04919577
-2.137725	chaoyang in
-1.662114	chaoyang region
-0.4301544	characteristics .
-0.3899711	china ,	-0.1403064
-0.5282738	china .	0.1408886
-1.385907	china and
-1.861518	china has
-1.861518	china in
-1.385907	china is
-1.385907	china ’	0.1133162
-0.7311844	choice ,
-0.7311844	choice of
-0.4301544	choices for
-1.660603	choose ,
-1.184993	choose .	0.4882881
-1.660603	choose automobiles
-0.9255613	choose public	0.1594659
-1.660603	choose railway
-1.660603	choose subway
-1.184993	choose the
-0.6510565	choose to	-0.1376999
-0.7311844	circle has
-0.7311844	circle of
-0.7311844	circulation for
-0.7311844	circulation of
-0.8576336	cities ,
-0.3984889	cities in
-1.333244	cities is
-1.333244	cities of
-1.129124	citizens can
-1.129124	citizens could
-1.129124	citizens in
-1.129124	citizens own
-1.129124	citizens to
-1.130635	city ,
-0.8712036	city .	0.5906607
-1.606246	city although
-1.606246	city growth
-1.606246	city in
-1.130635	city increased
-1.606246	city of
-1.606246	city on
-1.130635	city traffic	-0.2115036
-1.606246	city we
-0.4301544	class .
-0.4301544	clearly show
-0.4301544	client .
-0.4301544	close to
-0.4301544	closed to
-0.4301544	closer to
-0.4301544	code .
-0.4301544	coined by
-0.1722336	combination of
-1.333244	combine a
-0.8576336	combine all	-0.0583659
-0.8576336	combine different
-1.333244	combine multiple
-1.333244	combine the
-1.333244	combine their
-0.7311844	combined some
-0.7311844	combined the
-0.4301544	combines the
-0.9072757	come ,
-0.9072757	come out
-0.9072757	come to
-0.9072757	coming numbers
-0.4316649	coming of
-0.9072757	common people
-0.4316649	common phenomenon	0.09714589
-1.032214	communicate each
-1.032214	communicate is
-0.5566036	communicate people	-0.2461514
-0.4301544	community .
-0.4301544	commute for
-0.9072757	commuting in
-0.9072757	commuting on
-0.9072757	commuting they
-1.828094	companies ,
-1.093052	companies .	0.2528177
-1.828094	companies also
-1.093052	companies and	-0.1510304
-1.828094	companies become
-1.352484	companies can
-1.828094	companies could
-1.828094	companies do
-1.093052	companies don	0.5098691
-1.828094	companies easily
-1.828094	companies has
-1.828094	companies have
-1.828094	companies is
-1.828094	companies needs
-1.828094	companies nowadays
-1.828094	companies selling
-1.828094	companies should
-1.828094	companies that
-1.032214	company ,
-0.5566036	company must
-1.032214	company produced
-1.208306	compared .
-0.3010787	compared to	-0.1479207
-0.4301544	compatible with
-0.2555736	compatition ,	-0.25414
-0.4301544	compete with
-0.7311844	competence between
-0.7311844	competence in
-1.708908	competition .
-0.7741525	competition among	-0.218774
-1.708908	competition around
-1.708908	competition becomes
-0.4336556	competition between	-0.1234132
-0.973866	competition in	-0.1512407
-1.708908	competition more
-1.708908	competition which
-0.4301544	competitions between
-1.032214	competitive among
-0.5566036	competitive in
-1.032214	competitive the
-0.4301544	competity ,
-0.4316649	complete ,
-0.9072757	complete public
-0.4301544	comprehended public
-0.7311844	concerned ,
-0.7311844	concerned as
-0.4301544	concerning people
-0.1722336	condition of
-0.4301544	conducted next
-0.8576336	congestion ,	-0.2134084
-1.333244	congestion .
-1.333244	congestion and
-0.8576336	congestion in
-1.333244	congestion is
-1.333244	congestion we
-0.4301544	connect with
-0.4301544	connected people
-0.4301544	connecting people
-0.9072757	connection and
-0.4316649	connection between	0.04636943
-0.9072757	consider how
-0.4316649	consider the
-0.4301544	consideration besides
-0.4301544	considered as
-0.9072757	constitute ,
-0.4316649	constitute the
-0.9072757	consumer at
-0.4316649	consumer in	-0.08788927
-0.9959363	consumers ,	-0.2508963
-1.471547	consumers .
-1.471547	consumers any
-1.471547	consumers at
-0.9959363	consumers may	-0.2187739
-1.471547	consumers need
-1.471547	consumers nowadays
-0.9959363	consumers ’
-0.4301544	consumption by
-0.4301544	contact with
-0.4301544	contend dpi
-0.2555736	context of	-0.2531172
-0.4301544	control of
-0.4301544	controlled under
-0.9072757	convenient .
-0.9072757	convenient network
-0.9072757	convenient transportation
-0.4301544	cope with
-0.4301544	coping with
-0.4301544	corporation all
-1.498612	cost ,	-0.2097871
-0.5898255	cost .	0.5258141
-1.974222	cost 30
-1.974222	cost 8
-1.498612	cost 808	0.3152148
-1.039467	cost about	-0.240549
-1.974222	cost and
-1.974222	cost can
-1.974222	cost demand
-1.039467	cost is	-0.1031741
-1.974222	cost nearly
-1.039467	cost of
-1.974222	cost on
-1.498612	cost to
-1.974222	cost you
-0.4301544	costly suit
-0.4301544	costs 808
-1.430154	could be
-1.430154	could combine
-1.430154	could go
-1.430154	could have
-1.430154	could make
-1.430154	could only
-1.430154	could reach
-1.430154	could take
-1.430154	could to
-1.430154	could use
-0.9072757	counted as
-0.4316649	counted on	-0.2444964
-1.791882	countries ,
-0.8846553	countries .	0.5168065
-1.791882	countries </s>
-1.316271	countries and
-1.791882	countries for
-1.791882	countries in
-0.7823355	countries like	-0.02329145
-1.316271	countries of
-1.316271	countries such	-0.1747036
-1.791882	countries than
-1.791882	countries that
-0.9959363	country ,
-0.736505	country .	0.2528177
-0.9959363	country has
-0.9959363	country there
-1.471547	country to
-1.471547	country which
-0.4301544	course reached
-0.4301544	coverage ,
-1.275252	cpi can
-1.275252	cpi controlled
-1.275252	cpi has
-1.275252	cpi is
-1.275252	cpi rise
-1.275252	cpi was
-1.275252	cpi will
-0.7311844	crescendo ,
-0.7311844	crescendo of
-0.4301544	culture of
-0.9072757	current age
-0.9072757	current airport
-0.9072757	current export
-0.7311844	currently ,
-0.7311844	currently the
-0.4301544	custom situation
-1.333244	customer ,
-0.3984889	customer .	0.6340228
-0.8576336	customer and
-1.333244	customer ’
-0.6995189	customers ,	-0.1023169
-0.6247276	customers .	0.4208763
-1.634274	customers has
-1.634274	customers have
-1.634274	customers with
-0.8992323	customers ’	-0.4732847
-0.7311844	customize the
-0.7311844	customize their
-1.032214	customized .
-1.032214	customized demand
-0.5566036	customized product	-0.1477663
-1.032214	cycle for
-1.032214	cycle in
-0.5566036	cycle of
-0.6535136	daily life
-1.129124	daily means
-1.129124	daily time
-1.129124	daily work
-0.7326949	days ,
-0.7326949	days ago
-1.208306	days have
-1.208306	days when
-0.09745892	deal with	-0.2866124
-0.4301544	decide to
-0.4301544	declined .
-0.4301544	defeating it
-1.158664	demand .	0.4882881
-1.158664	demand for
-1.158664	demand has	-0.1877138
-1.634274	demand is
-0.30103	demand of	-0.1793025
-1.634274	demand which
-0.6093423	demands .	0.4354626
-1.544098	demands and
-1.544098	demands as
-1.544098	demands better
-1.544098	demands is
-0.6093423	demands of	-0.3046772
-1.544098	demands rising
-0.4301544	depart from
-0.4301544	describe the
-0.4301544	desire with
-0.9072757	destination ,
-0.4316649	destination .	0.4882881
-1.509336	develop ,
-1.033725	develop a
-1.509336	develop more
-0.4997889	develop public	0.2096862
-1.033725	develop the	-0.249478
-1.032214	developed a
-1.032214	developed countries
-1.032214	developed the
-1.032214	developed traffic
-0.9072757	developing public
-0.4316649	developing the
-0.6714902	development ,	-0.1008875
-1.606246	development .
-1.606246	development ?
-1.606246	development has
-1.606246	development include
-1.606246	development is
-0.5966989	development of	-0.02595951
-0.7311844	did not
-0.7311844	did ’
-1.068487	different companies
-1.544098	different demands
-1.068487	different enterprises
-1.068487	different level	-0.1134471
-1.544098	different needs
-1.544098	different people
-1.068487	different products
-1.544098	different shoe
-1.544098	different while
-0.4301544	diminished .
-0.4301544	dispatch in
-0.4301544	disposal income
-0.1722336	distance between	0.148742
-0.4301544	distribution of
-0.3606157	district ,	-0.6841793
-0.4771213	district .	-0.4031794
-2.021219	district and
-2.021219	district if
-1.286177	district in	-0.4370901
-1.545608	district of	-0.2518517
-1.545608	district to
-0.7311844	diversified products
-0.7311844	diversified ways
-1.509336	do a
-0.1249387	do not	-0.1597338
-1.509336	do so
-1.509336	do with
-0.4301544	doesn ’
-0.7311844	doing great
-0.7311844	doing jing
-0.4101745	dollars ,	-0.0721245
-0.7506714	dollars .	0.4354626
-1.685427	dollars </s>
-0.9503849	dollars and
-1.685427	dollars for
-1.685427	dollars per
-1.685427	dollars which
-0.04575749	don ’	-0.9017955
-0.4301544	done at
-0.9072757	dong ,
-0.4316649	dong jing	0.2302803
-0.4301544	dongjing ,
-0.7311844	down .
-0.7311844	down there
-0.4301544	dpi increase
-1.032214	dragons ,
-1.032214	dragons in
-0.5566036	dragons of	-0.2518517
-0.4301544	draw the
-0.7326949	drive ,
-1.208306	drive a
-1.208306	drive in
-1.208306	drive still
-1.208306	drive to
-0.4301544	driven one
-1.384397	due the
-0.05115252	due to	-0.1383949
-0.2555736	during the
-1.208306	each customer
-1.208306	each month
-1.208306	each of
-1.208306	each one
-0.7326949	each other
-0.4301544	ease the
-0.7311844	easily .
-0.7311844	easily find
-0.4301544	easing and
-0.4301544	east .
-1.068487	economic aggregate
-1.544098	economic aim
-1.544098	economic aims
-1.544098	economic and
-1.544098	economic ground
-1.544098	economic report
-1.544098	economic roles
-1.068487	economic site	0.09714589
-1.544098	economic social
-1.068487	economic volume	-0.2187739
-0.4301544	economies ,
-0.9545436	economy ,
-0.6951123	economy in
-0.9545436	economy is
-1.430154	economy surplus
-0.9545436	economy which	-0.2367703
-0.4301544	effected and
-1.129124	effective a
-1.129124	effective measures
-0.3940824	effective way	-0.1144673
-0.4301544	effetly ,
-0.8576336	efficient .
-1.333244	efficient in
-1.333244	efficient public
-0.3984889	efficient way	0.06816787
-0.4301544	efficiently .
-0.4301544	efforts and
-0.4301544	electronic cars
-0.4301544	elements have
-0.4301544	else .
-0.2555736	emergence of	-0.2419898
-0.4301544	enable people
-0.7311844	enabled people
-0.7311844	enabled the
-0.1722336	end of
-0.4301544	enervate ,
-0.4301544	enlightened .
-0.7311844	enough ,
-0.7311844	enough traffics
-0.4301544	enter the
-0.4301544	enterprise can
-1.509336	enterprises .
-1.509336	enterprises are
-1.509336	enterprises can
-1.509336	enterprises even
-1.509336	enterprises face
-1.509336	enterprises facing
-0.7742936	enterprises is
-1.509336	enterprises more
-1.509336	enterprises to
-1.509336	enterprises were
-0.4301544	enters of
-0.4301544	entire world
-0.4301544	envails and
-0.9072757	equal connection
-0.4316649	equal to	-0.1764328
-0.7311844	equivalent in
-0.7311844	equivalent to
-0.7996417	era ,	-0.2097871
-1.275252	era .
-0.7996417	era has
-0.7996417	era of
-0.2555736	especially in
-0.2971723	estimated that
-1.032214	estimated to
-0.4301544	estimates that
-0.6535136	even more
-1.129124	even people
-0.6535136	even though
-0.4301544	eventually arrive
-0.6535136	ever .	0.4882881
-0.3940824	ever before	-0.004607245
-1.935304	every ,
-1.935304	every 30
-1.935304	every client
-1.200262	every consumer	0.04844986
-1.028077	every customer	0.1452359
-1.935304	every factories
-0.6600519	every hour	-0.05486289
-1.935304	every individual
-1.935304	every industry
-1.459694	every month
-1.459694	every one	0.02454102
-1.935304	every people
-1.459694	every person
-1.935304	every product
-1.935304	every production
-1.935304	every shoes
-1.935304	every thirty
-0.4301544	everybody ’
-0.7311844	everyone ,
-0.7311844	everyone .
-0.1722336	everything .	0.2528177
-0.7311844	exact number
-0.7311844	exact size
-0.4301544	exaggerated by
-0.08040634	example ,	-0.2821273
-0.9481683	example .	-0.04586947
-2.281413	example for
-1.805802	example in
-2.281413	example we
-0.4301544	exceed 537.3
-1.129124	exceeded 20000
-1.129124	exceeded 300
-1.129124	exceeded countries
-1.129124	exceeded israel
-1.129124	exceeded that
-0.4301544	excessive capacity
-0.4301544	exchange of
-0.4301544	expanded than
-0.4301544	expansion cost
-1.032214	expectancy cycle
-0.2971723	expectancy of
-0.2555736	expectation of
-1.129124	expected ,
-1.129124	expected one
-1.129124	expected the
-0.6535136	expected to
-0.4301544	expenditure that
-0.4301544	explains ,
-0.6714902	export and	-0.3040899
-1.606246	export carries
-1.606246	export exceeded
-0.8712036	export of	-0.4479049
-1.606246	export output
-1.606246	export part
-0.8712036	export reached	-0.1107022
-1.606246	export volume
-0.4301544	exportation of
-0.4301544	face a
-0.4301544	faced with
-0.4301544	facility .
-0.9072757	facing is
-0.4316649	facing more
-0.9072757	fact ,
-0.9072757	fact if
-0.9072757	fact in
-0.7311844	factor .
-0.7311844	factor can
-1.509336	factories ,
-1.509336	factories .
-0.7742936	factories can
-1.509336	factories decide
-1.509336	factories have
-1.033725	factories is	-0.2391484
-1.509336	factories poser
-1.509336	factories usually
-1.509336	factories will
-0.4301544	factors .
-0.6535136	factory ,
-1.129124	factory .
-1.129124	factory and
-1.129124	factory can
-0.4301544	facts that
-0.2555736	fail to	-0.2495463
-0.4301544	fairly high
-0.2555736	fall behind	-0.1134471
-0.4301544	fantastic places.however
-0.4301544	far as
-0.9072757	fashion ,
-0.9072757	fashion for
-0.9072757	fashion practice
-0.4301544	fashionally in
-0.3984889	fast ,	-0.08829835
-1.333244	fast .
-1.333244	fast adaption
-1.333244	fast corporation
-1.333244	fast enough
-0.1943689	faster than	-0.26591
-1.129124	faster while
-0.2555736	fat or	-0.004783064
-0.7996417	features at	-0.1214493
-0.5402104	features of
-1.275252	features the
-1.275252	features together
-1.296966	feet ,
-1.296966	feet .
-1.296966	feet are	-0.2493289
-1.772577	feet for
-0.2284793	feet is	-1.088447
-1.772577	feet of
-1.772577	feet size
-0.1722336	few months
-0.2555736	field ,	-0.25414
-1.471547	fierce ,
-0.736505	fierce .	0.2528177
-1.471547	fierce competence
-0.736505	fierce competition
-0.736505	fierce than	-0.4512174
-0.4301544	fiercely .
-0.7311844	financial cost
-0.7311844	financial resources
-0.9545436	find a
-1.430154	find in
-1.430154	find it
-1.430154	find out
-1.430154	find that
-1.430154	find the
-1.430154	find you
-1.430154	find yourself
-1.430154	find yourselves
-0.3680255	finland ,	-0.1746502
-0.7996417	finland and	-0.2510309
-1.184993	first among	-0.2221777
-1.660603	first choice
-0.7533764	first in	-0.05937086
-1.660603	first three
-0.3273589	first time	0.04901114
-0.4301544	fit in
-0.4301544	fixed choices
-0.4301544	flow in
-0.7311844	foot ,
-0.7311844	foot is
-0.4301544	foots because
-2.197582	for ,
-2.673193	for .
-2.197582	for 1	0.699582
-1.765965	for 30	-0.1338342
-2.673193	for 537.6
-2.197582	for a
-2.197582	for all
-1.93815	for an	-0.08556029
-2.197582	for another
-2.673193	for approximately
-2.197582	for automobiles	-0.1321224
-2.673193	for by
-2.673193	for cellphones
-2.673193	for commuting
-2.673193	for convenient
-2.673193	for coping
-2.673193	for customers
-2.673193	for daily
-2.673193	for different
-2.197582	for each
-2.673193	for easing
-2.673193	for economic
-2.673193	for every
-2.673193	for everyone
-0.5187622	for example	-0.4750775
-2.197582	for gdp
-2.673193	for individuals
-2.673193	for its
-2.673193	for just
-2.673193	for large
-2.673193	for leisure
-2.673193	for livelihood
-2.673193	for many
-2.197582	for more	-0.2277915
-2.673193	for most
-2.673193	for now
-2.197582	for one
-2.673193	for others
-2.673193	for over
-2.673193	for personal
-1.93815	for several	-0.1099197
-2.197582	for shenzhen
-2.673193	for shoes
-2.673193	for some
-2.673193	for something
-2.197582	for that
-0.7806401	for the	-0.1268038
-2.673193	for their
-2.673193	for these
-1.93815	for those
-2.673193	for tourism
-2.673193	for transportation
-2.673193	for travel
-2.197582	for traveling	-0.1456021
-2.197582	for us	-0.2187739
-1.738437	for vacation	0.0001326576
-2.673193	for very
-2.673193	for work
-1.288796	for you	-0.6334016
-2.673193	for yourself
-0.4301544	forces ,
-0.4301544	foreign trade
-0.4301544	forgotten very
-0.2555736	former four	-0.1444076
-0.4301544	forth tigers
-0.7326949	fortieth ,	-0.2528782
-1.208306	fortieth equivalent
-1.208306	fortieth in
-1.208306	fortieth of
-1.208306	fortieth place
-0.4301544	forty around
-0.4301544	found that
-1.333244	foundation ,
-1.333244	foundation for
-1.333244	foundation in
-0.4260175	foundation of	-0.1162041
-0.9087861	four asian
-0.6493549	four dragons	-0.01107457
-1.384397	four major
-0.6493549	four tigers
-0.4301544	fourteenth largest
-0.4436975	france ,	-0.1370262
-1.093052	france .	0.5906607
-1.352484	france and
-1.828094	france i
-1.828094	france it
-1.828094	france then
-0.552842	france to	-0.3554242
-1.828094	france you
-1.000549	from a	-0.05062199
-1.935304	from an
-1.935304	from beijing
-1.459694	from chaoyang	0.3389663
-0.6600519	from france	-0.116056
-1.935304	from german
-1.000549	from germany	-0.2587253
-1.935304	from june
-1.935304	from one
-1.935304	from our
-1.935304	from out
-1.935304	from paris
-1.028077	from the	-0.07809584
-1.459694	from this
-0.4301544	function into
-0.9072757	functions .
-0.9072757	functions in
-0.9072757	functions into
-0.4301544	fundamental base
-0.4301544	funny web
-1.032214	further developed
-1.032214	further increase
-0.5566036	further than
-0.9072757	future .
-0.4316649	future development
-2.102252	gdp .
-2.102252	gdp at
-1.626642	gdp by
-2.102252	gdp can
-2.102252	gdp grew
-1.092705	gdp growth	0.01045408
-2.102252	gdp has
-1.167497	gdp in	-0.2244281
-2.102252	gdp increasement
-2.102252	gdp indicators
-1.36721	gdp is
-0.4960066	gdp of	-0.5318053
-1.167497	gdp per	-0.02226001
-2.102252	gdp predicted
-2.102252	gdp reached
-2.102252	gdp volume
-1.626642	gdp was
-2.102252	gdp would
-0.4301544	general gdp
-0.47717	german ,	-0.3384216
-1.384397	german .
-1.384397	german and
-1.384397	german in
-1.384397	german to
-0.2787536	germany ,	-0.1594355
-1.708908	germany .
-0.7741525	germany and
-1.708908	germany then
-0.973866	germany to	-0.4706088
-1.576283	get from
-1.576283	get into
-0.06694679	get to	-0.1084716
-0.4301544	getting severe
-0.4301544	give you
-1.509336	global ,
-1.509336	global economy
-1.509336	global excessive
-1.509336	global goods
-0.7742936	global industry	-0.4215775
-1.509336	global need
-1.509336	global over-capacity
-1.509336	global overproduction
-1.509336	global production
-1.509336	global world
-0.4301544	globally .
-1.708908	go ,
-1.708908	go about
-1.233297	go for
-1.233297	go from
-1.708908	go home
-1.708908	go on
-1.233297	go out
-1.708908	go through
-0.3756636	go to	-0.1604667
-0.2555736	goals for
-1.208306	going ,
-1.208306	going out
-1.208306	going outside
-0.4732636	going to
-1.430154	good .
-1.430154	good circulation
-1.430154	good effective
-1.430154	good for
-1.430154	good method
-1.430154	good network
-1.430154	good of
-1.430154	good transportation
-0.9545436	good way
-1.333244	goods ,
-0.8576336	goods .	0.4882881
-1.333244	goods account
-0.8576336	goods for
-1.333244	goods in
-1.333244	goods income
-0.5367916	government ,
-1.471547	government in
-1.471547	government of
-1.471547	government performance
-0.9959363	government report
-1.471547	government will
-1.471547	government work
-0.4301544	governmental report
-0.7311844	great in
-0.7311844	great popularity
-0.4301544	greater needs
-1.430154	greatly changed
-1.430154	greatly enlightened
-0.9545436	greatly impacted	0.09714589
-1.430154	greatly reduce
-1.430154	greatly shaken
-1.430154	greatly shocked
-0.6951123	greatly shortened	-0.1597642
-0.5402104	greece ,
-0.7996417	greece .
-0.7996417	greece but
-0.4301544	greek ,
-0.4301544	grew by
-0.4301544	ground as
-0.7311844	group of
-0.7311844	group together
-0.7311844	grow ,
-0.7311844	grow by
-1.509336	growth ,
-1.509336	growth and
-1.509336	growth at
-1.509336	growth for
-1.509336	growth gdp
-1.033725	growth has
-0.7742936	growth of
-1.033725	growth rate
-0.7311844	had contact
-0.7311844	had to
-0.4301544	half of
-0.4301544	handled in
-0.4301544	handling ranks
-0.4301544	handy as
-0.7311844	happiness index
-0.7311844	happiness through
-0.4301544	harbors of
-0.4301544	hard to
-1.59577	has ,
-2.530525	has 2.27
-2.530525	has 2.7
-1.623298	has a	-0.1293083
-1.623298	has actually	-0.1036103
-2.530525	has advantages
-1.59577	has already
-2.530525	has also
-2.530525	has amounted
-2.530525	has automobiles
-1.59577	has become	-0.202764
-0.845098	has been	-0.007401232
-2.530525	has being
-2.530525	has brought
-2.530525	has caused
-1.197281	has changed
-2.530525	has clearly
-2.054914	has come
-2.530525	has cost
-2.530525	has enabled
-1.795483	has exceeded
-1.59577	has greatly	-0.05781092
-2.054914	has increased
-2.530525	has leveraged
-2.530525	has lost
-1.520978	has made	0.1210091
-2.530525	has one
-2.530525	has other
-2.530525	has outpassed
-2.530525	has oversupplied
-2.054914	has passed
-2.530525	has provide
-2.530525	has raised
-2.530525	has ranked
-0.8962505	has reached	0.001010446
-2.530525	has reduced
-2.054914	has resulted	0.09714589
-2.530525	has rolled
-2.530525	has set
-2.530525	has shaped
-2.530525	has shaping
-2.530525	has shortened
-2.530525	has some
-2.530525	has stricken
-1.255273	has surpassed	0.0756326
-2.530525	has taken-placed
-2.530525	has the
-2.054914	has to
-2.530525	has wakened
-1.787053	have ,
-1.355436	have a	-0.08241534
-2.262663	have advanced
-2.262663	have after
-2.262663	have an
-1.787053	have become
-0.9874108	have been
-2.262663	have cars
-2.262663	have changed
-2.262663	have different
-2.262663	have enough
-2.262663	have greater
-2.262663	have industrial
-2.262663	have light
-1.787053	have lots	0.2302803
-1.787053	have made
-2.262663	have magnified
-1.787053	have many
-2.262663	have more
-2.262663	have much
-2.262663	have nonsymetry
-2.262663	have only
-2.262663	have other
-2.262663	have over
-2.262663	have private
-2.262663	have produced
-1.327908	have reached
-1.787053	have seen
-2.262663	have some
-2.262663	have spent
-2.262663	have standard
-2.262663	have the
-1.527621	have their	-0.4219594
-0.7911162	have to	-0.0616693
-2.262663	have very
-2.262663	have waste
-2.262663	have witnessed
-0.4301544	he total
-0.4301544	heated competition
-0.4301544	helpful between
-0.5566036	here .	0.4882881
-1.032214	here is
-1.032214	here ’
-1.208306	high ,
-1.208306	high .
-0.7326949	high cost
-1.208306	high demands
-1.208306	high expectation
-0.2555736	higher than
-0.4301544	hold high
-0.4301544	holiday and
-0.4301544	home on
-0.1987589	hong kong	0.1510546
-0.9072757	hot ,
-0.9072757	hot machine
-0.9072757	hot spot
-0.4301544	hot-seller ,
-0.8040318	hour ,	-0.2911468
-1.777898	hour .	0.5906607
-2.51294	hour after
-2.51294	hour ago
-1.777898	hour and
-2.51294	hour as
-2.51294	hour aside
-2.51294	hour at
-2.51294	hour before
-2.51294	hour bus
-2.037329	hour commuting
-1.605713	hour for	-0.4069687
-1.503393	hour from	-0.05416596
-1.179695	hour i	-0.0421312
-1.578184	hour in	-0.1407148
-2.51294	hour it
-1.128543	hour later	-0.02735482
-1.503393	hour of	-0.06795946
-1.605713	hour on	0.3089647
-2.51294	hour past
-2.037329	hour people	-0.2461514
-0.9366573	hour to	-0.3947347
-2.51294	hour traffic
-2.51294	hour transport
-2.51294	hour we
-2.51294	hour will
-0.8040318	hour you	-0.2262335
-1.777898	hour ’	-0.1221541
-0.6093423	hours ,	-0.2809228
-1.544098	hours in
-1.544098	hours on
-1.544098	hours or
-1.068487	hours they	-0.2399562
-0.8090557	hours to
-1.544098	hours ’
-0.4301544	house more
-1.275252	how large
-0.7996417	how people
-1.275252	how precise
-1.275252	how serious
-0.7996417	how we
-0.3332147	however ,	-0.07166444
-1.877312	however 0.163
-1.877312	however after
-1.877312	however another
-1.877312	however at
-1.877312	however if
-1.401702	however in	-0.2016198
-1.877312	however is
-1.401702	however it	-0.2157425
-0.9700855	however the	-0.07861876
-0.7311844	hundred and
-0.7311844	hundred was
-1.961633	i am
-1.486022	i can
-1.026878	i could
-1.961633	i have
-1.486022	i live	0.2302803
-1.961633	i needed
-1.486022	i spend
-1.961633	i still
-1.226591	i take
-1.961633	i took
-1.961633	i travel
-1.226591	i was	-0.1065914
-0.6863809	i will	-0.1066294
-1.054406	i ’	-0.4141062
-0.2555736	ideal ones	-0.05392271
-0.4301544	ie ,
-1.47717	if a	-0.04126475
-2.384397	if an
-2.384397	if compared
-1.47717	if i	-0.07042577
-2.384397	if it
-2.384397	if their
-2.384397	if there
-1.649355	if they
-1.649355	if we
-0.2138798	if you	-0.2147922
-0.8081145	if your	-0.2130748
-0.4301544	ignore that
-0.1722336	imbalance of	-0.4788864
-0.4301544	imbalanced .
-0.2555736	impacted the	-0.2527002
-0.4301544	implemented into
-1.471547	import ,
-0.9959363	import .
-1.471547	import and
-1.471547	import exceed
-1.471547	import goods
-1.471547	import over
-0.9959363	import reached
-1.471547	import volume
-1.471547	import was
-0.8576336	important for	-0.2518963
-0.8576336	important foundation
-1.333244	important in
-1.333244	important measure
-1.333244	important role
-1.333244	important to
-1.275252	improve it
-0.5402104	improve people	-0.4462254
-0.5402104	improve the	-0.1506384
-0.4301544	improved its
-0.7311844	improvement and
-0.7311844	improvement increasing
-0.4301544	improving people
-2.618245	in ,
-3.093855	in 1900
-3.093855	in 2003
-3.093855	in 2004
-1.28349	in 2013	0.07412857
-2.186628	in 2014	-0.01877981
-1.622308	in 2015	0.2956962
-3.093855	in 2016
-2.186628	in a	-0.08041913
-3.093855	in actions
-3.093855	in addition
-2.618245	in airport
-2.186628	in an	-0.0253281
-2.618245	in another
-2.1591	in asia	0.5955943
-3.093855	in basic
-0.9394251	in beijing	-0.06660002
-2.618245	in beijng
-3.093855	in calculation
-1.216543	in chaoyang	0.1389719
-1.301973	in china	-0.0599134
-2.618245	in cities
-3.093855	in control
-2.618245	in countries
-3.093855	in daily
-3.093855	in doing
-3.093855	in dongjing
-3.093855	in economic
-3.093855	in economy
-2.358813	in every	-0.04507801
-2.358813	in fact
-1.663701	in france	0.02622053
-3.093855	in german
-2.618245	in germany
-3.093855	in here
-3.093855	in improving
-3.093855	in increasing
-2.358813	in industrial
-3.093855	in industries
-3.093855	in industry
-3.093855	in information
-3.093855	in internationally
-3.093855	in internet
-3.093855	in investment
-2.358813	in its
-3.093855	in january
-1.663701	in japan	-0.04186393
-2.358813	in june	-0.01778884
-2.618245	in just	-0.2124936
-3.093855	in manufacturing
-3.093855	in month
-3.093855	in nationwide
-3.093855	in nowadays
-3.093855	in of
-2.358813	in one
-3.093855	in order
-2.618245	in other
-2.358813	in our	-0.431585
-2.1591	in poland	1.014724
-3.093855	in popularity
-3.093855	in private
-3.093855	in production
-3.093855	in promoting
-3.093855	in relatively
-3.093855	in rush
-2.618245	in severed	0.09714589
-1.818603	in shenzhen	-0.05138375
-3.093855	in size
-3.093855	in small
-3.093855	in smaller
-1.760611	in terms	0
-0.4963836	in the	-0.2443749
-3.093855	in their
-2.358813	in these	-0.1011731
-1.818603	in this	-0.05182107
-3.093855	in time
-3.093855	in today
-1.622308	in tokyo	-0.2049023
-3.093855	in trade
-2.186628	in traffic	0.063306
-2.618245	in which
-3.093855	in year
-3.093855	in your
-2.618245	in zhaoyang	0.09714589
-0.4301544	inception of
-0.4301544	include growth
-0.4301544	included is
-0.7311844	including 163
-0.7311844	including cars
-0.4316649	income and
-0.9072757	income has
-1.130635	increase ,
-0.8712036	increase by	-0.1406522
-1.130635	increase in
-1.606246	increase its
-1.606246	increase may
-1.606246	increase of
-1.606246	increase rate
-0.8712036	increase the	-0.1517156
-1.606246	increase with
-0.9959363	increased ,
-1.471547	increased 10.5
-1.471547	increased and
-1.471547	increased as
-0.5367916	increased by	-0.07674488
-1.471547	increased its
-1.471547	increased the
-0.4301544	increasement was
-0.4301544	increases its
-0.9072757	increasing competition
-0.9072757	increasing competitive
-0.9072757	increasing to
-0.4301544	index of
-0.4301544	indicators the
-1.208306	individual .
-1.208306	individual need
-0.7326949	individual needs
-1.208306	individual style
-1.208306	individual ’
-0.4301544	individualized demand
-0.7311844	individuals .
-0.7311844	individuals and
-1.158664	industrial age	-0.06414858
-1.634274	industrial amount
-1.634274	industrial area
-1.634274	industrial capacity
-1.634274	industrial era
-1.158664	industrial field	0.09714589
-1.634274	industrial period
-1.634274	industrial sectors
-0.8992323	industrial time	-0.3140396
-1.158664	industrial world
-1.634274	industrial year
-1.129124	industrialization ,
-0.6535136	industrialization .
-1.129124	industrialization has
-1.129124	industrialization is
-0.4301544	industrialized countries
-0.5566036	industries .	-0.2540239
-1.032214	industries and
-1.032214	industries around
-0.9103723	industry ,	-0.1071435
-0.9379008	industry .	0.6581033
-1.369517	industry and
-1.845128	industry can
-1.845128	industry had
-0.835581	industry has
-1.369517	industry is
-1.845128	industry more
-1.845128	industry to
-1.369517	industry which	-0.06084053
-1.845128	industry will
-1.172234	information ,
-0.6320232	information .	-0.1847778
-1.907276	information area
-1.172234	information asymmetry	0.04844986
-1.907276	information becoming
-1.907276	information between
-1.907276	information dispatch
-1.907276	information era
-1.000049	information has	-0.1112126
-1.907276	information in
-1.172234	information is	-0.1367758
-1.907276	information of
-1.907276	information so
-1.907276	information structure
-0.4301544	infrastructure by
-0.9072757	instead ,
-0.4316649	instead of
-0.4301544	insymmetrity of
-0.2555736	insymmetry of	-0.243416
-0.4301544	inter shoes
-0.4301544	interaction among
-0.4301544	interconnected .
-0.4301544	interesting thing
-0.7996417	international business	-0.1657879
-1.275252	international defeating
-1.275252	international economy
-1.275252	international enterprises
-1.275252	international gdp
-1.275252	international perspective
-0.7311844	internationally ,
-0.7311844	internationally with
-1.258827	internet ,
-0.8091855	internet .	0.2399928
-1.717972	internet about	-0.139941
-1.184036	internet age	-0.02923148
-2.193583	internet become
-1.717972	internet can
-2.193583	internet changed
-2.193583	internet changes
-2.193583	internet coverage
-1.717972	internet development
-1.45854	internet era	-0.07728009
-0.4846744	internet has	-0.1148662
-2.193583	internet house
-2.193583	internet play
-2.193583	internet talk
-2.193583	internet talking
-2.193583	internet time
-2.193583	internet to
-2.193583	internet users
-0.4301544	internets connected
-0.3984889	into one	-0.2321158
-1.333244	into poland
-0.8576336	into the
-1.333244	into what
-0.7311844	invest money
-0.7311844	invest more
-0.4301544	investigation ,
-1.129124	investment in
-0.3940824	investment of	-0.1381863
-1.129124	investment people
-0.4301544	iphone has
-0.9072757	iran ,
-0.9072757	iran and
-0.9072757	iran but
-0.5982023	ireland ,
-0.4260175	ireland and	-0.08121564
-1.880862	is ,	-0.08306299
-2.788089	is .
-2.788089	is 1.431
-2.788089	is 2.71
-2.053047	is 808	0.0797444
-0.7558749	is a	-0.07206424
-1.880862	is about	-0.01789853
-2.788089	is accelerating
-2.788089	is almost
-2.788089	is already
-1.853334	is also	-0.07077191
-2.788089	is always
-2.788089	is among
-2.053047	is an
-2.788089	is approximately
-2.312479	is because
-2.312479	is becoming	-0.1134471
-2.053047	is bigger
-2.788089	is causing
-2.788089	is closed
-2.788089	is coined
-2.788089	is common
-2.312479	is concerned
-2.788089	is doing
-2.788089	is effected
-2.788089	is equivalent
-1.853334	is estimated	-0.002563864
-2.788089	is exaggerated
-2.788089	is expectation
-2.312479	is expected
-2.788089	is fashion
-2.788089	is found
-2.788089	is getting
-2.312479	is going	-0.07662754
-2.312479	is greatly	-0.1567807
-2.788089	is higher
-2.312479	is how
-2.788089	is imbalanced
-2.788089	is in
-2.312479	is increased
-2.788089	is insymmetry
-2.788089	is just
-2.788089	is larger
-2.788089	is less
-2.788089	is limited
-2.788089	is low
-2.788089	is lower
-2.788089	is much
-2.788089	is newest
-1.880862	is no
-2.788089	is nobody
-1.454845	is not
-2.788089	is noticeable
-2.312479	is now
-2.312479	is one
-2.788089	is one-hour
-2.053047	is only
-2.312479	is outdated
-2.788089	is outperformed
-2.788089	is over
-2.788089	is personalized
-2.788089	is previously
-2.312479	is quite
-2.312479	is really
-2.788089	is reasonable
-2.053047	is said	-0.1597642
-2.788089	is short
-2.312479	is shorted	-0.05392271
-2.312479	is shorten
-2.312479	is similar
-2.312479	is smaller
-2.788089	is sold
-2.788089	is somehow
-1.778543	is still	-0.05044523
-2.788089	is suited
-2.788089	is talk
-2.053047	is that
-1.243991	is the	-0.0296624
-2.788089	is threaten
-1.316542	is to	-0.182114
-1.243991	is too	0.3613161
-1.316542	is very	-0.016087
-2.788089	is wasted
-2.788089	is what
-2.788089	is you
-2.788089	is your
-0.6951123	israel ,	-0.1517675
-0.4206076	israel and	-0.2484909
-1.430154	israel or
-0.4301544	issues concerning
-2.576283	it 's
-1.84124	it ,
-2.100672	it .	0.4882881
-2.100672	it a
-2.576283	it already
-2.576283	it also
-2.576283	it became
-2.576283	it becomes
-2.576283	it came
-2.576283	it can
-2.576283	it carries
-2.100672	it cost	-0.2130748
-2.576283	it enabled
-2.576283	it enter
-2.100672	it for
-2.576283	it greatly
-1.066947	it has	-0.1426605
-0.5228788	it is	-0.02417403
-2.576283	it may
-2.576283	it one
-2.100672	it only
-2.576283	it pin
-2.576283	it produce
-2.576283	it production
-2.576283	it ranks
-2.100672	it really	-0.1456021
-2.576283	it relevantly
-1.641527	it requires	0.03228758
-2.576283	it rise
-2.100672	it satisfies	0.09714589
-2.576283	it should
-2.100672	it soon
-2.576283	it stand
-2.100672	it take
-1.191885	it takes	0.1461703
-2.576283	it turned
-2.576283	it very
-1.84124	it was
-2.576283	it were
-0.9156791	it will	-0.1667698
-2.576283	it works
-1.30103	it ’	-0.5597497
-1.791882	its cargo
-1.791882	its cost
-1.791882	its course
-1.316271	its cpi
-1.316271	its export
-1.05684	its gdp	-0.141905
-1.791882	its goals
-1.791882	its good
-1.791882	its goods
-1.316271	its import
-1.791882	its investment
-1.791882	its objective
-1.791882	its objectives
-1.791882	its people
-1.316271	its rise	-0.1134471
-1.791882	its visitors
-1.791882	its way
-0.4301544	itself .
-1.102711	jam ,	-0.04359316
-0.5383909	jam .	0.5910002
-2.009938	jam about
-2.009938	jam has
-1.534327	jam if
-0.6766936	jam in	-0.1635819
-1.274896	jam is
-2.009938	jam nowadays
-2.009938	jam per
-1.274896	jam problem
-1.534327	jam which
-0.6535136	jams ,
-0.6535136	jams .	-0.2347299
-1.129124	jams in
-0.4301544	january ,
-0.6021087	japan ,	-0.06910311
-1.509336	japan .
-1.509336	japan </s>
-1.033725	japan for	-0.09798233
-1.509336	japan is
-1.509336	japan of
-1.509336	japan the
-0.1722336	jing ,
-0.4301544	joined the
-1.576283	joke ,
-0.8412404	joke about	-0.03756841
-1.576283	joke among
-1.576283	joke in
-1.100672	joke on	0.2804527
-1.576283	joke online
-1.576283	joke teasing
-0.6415269	joke that
-0.7311844	jokes online
-0.7311844	jokes that
-0.4301544	joking point
-0.9072757	journey ,
-0.9072757	journey from
-0.9072757	journey you
-0.5745802	june ,	-0.2330406
-1.509336	june 2014
-0.5745802	june 2015	0.3079282
-1.033725	june in	-0.2441721
-1.509336	june there
-1.033725	just a	-0.2476291
-1.509336	just because
-1.509336	just behind
-1.509336	just combine
-1.509336	just in
-1.509336	just launched
-1.509336	just produces
-1.509336	just released
-1.509336	just spend
-1.033725	just turn	-0.05392271
-0.4301544	keep with
-0.4301544	kept in
-0.4301544	key to
-0.04139268	kind of	-0.03881063
-1.685427	know all
