
\data\
ngram 1=329
ngram 2=534
ngram 3=565

\1-grams:
-1.023279	,	-99
-1.319449	.	-99
-2.655701	1	-99
-3.038918	1.431	-99
-3.038918	10%	-99
-3.038918	10.5	-99
-3.038918	116	-99
-3.038918	15.1	-99
-2.655701	163	-99
-3.038918	2	-99
-2.655701	2.7	-99
-2.561797	2013	-99
-2.737888	2014	-99
-2.354671	2015	-99
-3.038918	23.5	-99
-3.038918	3.5%	-99
-2.655701	30	-99
-2.737888	3000	-7.480618
-3.038918	40	-99
-3.038918	5373.6	-99
-2.655701	808	-99
-1.301858	</s>
-99	<s>	-7.086139
-2.339948	GDP	-7.632866
-2.144971	、	-99
-2.17858	一	-99
-2.311919	一个	-9.155053
-2.703126	一大	-99
-3.038918	一批	-99
-2.402096	一款	-99
-2.703126	一起	-99
-3.038918	万人次	-99
-3.038918	万亿元	-99
-2.703126	万众	-99
-3.038918	万美元	-99
-2.703126	三十年	-99
-2.292025	上	-7.505198
-2.703126	不	-99
-2.703126	不快	-99
-2.703126	不行	-99
-2.237286	与	-8.077592
-3.038918	世界	-99
-2.655701	东京	-99
-2.703126	东西	-99
-2.655701	个人	-99
-2.703126	个性	-99
-2.703126	个性化	-99
-3.038918	中	-99
-2.737888	为	-7.481017
-2.655701	为例	-99
-3.038918	主要	-99
-2.703126	乏人问津	-99
-2.209614	买	-7.733066
-2.703126	买鞋	-99
-1.732493	了	-99
-2.703126	了解	-99
-2.402096	互联网	-7.478356
-3.038918	亚洲	-99
-2.655701	交通	-99
-2.655701	交通拥堵	-99
-2.101066	产品	-7.132202
-2.703126	产能	-99
-2.101066	人	-7.234973
-2.655701	人们	-99
-3.038918	人均	-99
-2.655701	亿	-99
-2.737888	亿美元	-7.414942
-2.655701	亿辆	-99
-2.703126	仅仅	-99
-2.703126	从	-99
-2.703126	从而	-99
-2.655701	以	-99
-3.038918	以上	-99
-2.703126	以往	-99
-3.038918	以色列	-99
-3.038918	件	-99
-3.038918	价格	-99
-2.402096	企业	-7.437614
-2.655701	休闲	-99
-2.655701	会	-99
-2.703126	伺候	-99
-2.505316	但	-99
-2.703126	但是	-99
-2.737888	位置	-7.435778
-3.038918	低于	-99
-2.402096	低成本	-7.458742
-2.655701	余辆	-99
-1.900615	你	-7.86827
-2.655701	保有量	-99
-2.703126	信息	-99
-2.703126	偏瘦	-99
-2.703126	偏肥	-99
-2.703126	做法	-99
-2.655701	元	-99
-2.655701	全国	-99
-3.038918	全市	-99
-3.038918	全球	-99
-2.703126	全球性	-99
-2.655701	公交	-99
-2.354671	公共交通	-7.437064
-2.655701	六月	-99
-2.655701	其中	-99
-3.038918	内地	-99
-2.354671	再	-99
-2.703126	几个	-99
-3.038918	出口	-99
-2.17858	出行	-7.658256
-2.655701	分钟	-99
-3.038918	初步	-99
-2.19382	到	-99
-2.703126	到来	-99
-2.17858	北京	-7.674698
-2.655701	即使	-99
-2.703126	厂商	-99
-3.038918	去年	-99
-2.505316	发展	-99
-2.655701	发达	-99
-3.038918	另	-99
-2.703126	只有	-99
-2.703126	可以	-99
-3.038918	台湾	-99
-2.655701	同一时间	-99
-3.038918	名	-99
-2.737888	吞吐量	-7.481017
-3.038918	启动	-99
-2.505316	和	-99
-3.038918	四小龙	-99
-2.737888	国家	-7.479755
-1.762073	在	-7.619874
-3.038918	在世界上	-99
-2.703126	地	-99
-3.038918	地区	-99
-2.354671	坐	-99
-2.655701	坐一	-99
-2.655701	坐车	-99
-2.354671	城市	-7.478923
-2.703126	基础	-99
-2.354671	堵车	-7.478623
-3.038918	增强	-99
-2.436858	增长	-7.92768
-3.038918	处	-99
-2.209614	多	-7.796777
-2.402096	大	-7.414942
-3.038918	大中城市	-99
-2.703126	大大缩短	-99
-2.703126	如果	-99
-3.038918	安排	-99
-3.038918	完成	-99
-3.038918	实事	-99
-2.226005	实现	-7.678988
-2.703126	客户	-99
-2.703126	对不起	-99
-2.703126	对称	-99
-2.703126	导致	-99
-3.038918	将	-99
-2.703126	小批量	-99
-1.956731	小时	-7.572139
-2.17858	小汽车	-99
-1.975085	就	-8.203244
-3.038918	局	-99
-2.703126	局面	-99
-3.038918	居民消费	-99
-2.226005	工业	-99
-3.038918	工作	-99
-3.038918	工程	-99
-2.436858	左右	-7.212885
-3.038918	已	-99
-2.703126	已经	-99
-3.038918	巴基斯坦	-99
-3.038918	市民	-99
-3.038918	希腊	-99
-2.046217	年	-7.778499
-3.038918	幸福感	-99
-2.655701	底	-99
-2.655701	度假	-99
-3.038918	当年	-99
-2.655701	形成	-99
-2.703126	往往	-99
-2.655701	德国	-99
-2.703126	快	-99
-2.703126	快速	-99
-2.703126	性能	-99
-2.561797	总量	-7.681251
-2.737888	总额	-7.481017
-2.402096	成为	-7.471939
-2.655701	成本	-99
-2.538316	或	-7.688329
-2.655701	截至	-99
-3.038918	所	-99
-2.703126	所以	-99
-2.703126	手	-99
-2.703126	手机	-99
-2.703126	把	-99
-2.655701	折合	-99
-2.737888	报告	-7.480618
-2.354671	拥有	-7.479888
-3.038918	持续	-99
-3.038918	指标	-99
-3.038918	排名	-99
-3.038918	控制	-99
-2.655701	措施	-99
-3.038918	提升	-99
-3.038918	支出	-99
-2.703126	改变	-99
-2.703126	放大	-99
-2.655701	方面	-99
-3.038918	旅客	-99
-2.655701	旅行	-99
-2.402096	无法	-7.479223
-2.655701	日本	-99
-2.655701	早晨	-99
-2.226005	时代	-99
-2.655701	时候	-99
-2.655701	时间	-99
-2.505316	是	-99
-2.737888	显示	-99
-2.655701	更	-99
-2.703126	月	-99
-2.655701	有	-99
-2.655701	有效	-99
-2.703126	有的是	-99
-2.17858	朝阳区	-99
-2.703126	期待	-99
-2.655701	机动车	-99
-3.038918	机场	-99
-3.038918	来看	-99
-2.703126	某	-99
-2.703126	标准	-99
-2.703126	概不	-99
-2.737888	此外	-99
-2.655701	段子	-99
-2.377737	每	-8.558229
-2.703126	每个	-99
-2.655701	每月	-99
-2.703126	比如	-99
-3.038918	比肩	-99
-2.436858	民生	-7.17919
-3.038918	水平	-99
-2.655701	汽车	-99
-2.655701	沟通	-99
-2.703126	没有	-99
-2.655701	法国	-99
-2.655701	波兰	-99
-3.038918	涨幅	-99
-2.19382	深圳	-99
-3.038918	深圳市	-99
-3.038918	深圳市政府	-99
-3.038918	港	-99
-2.703126	激烈	-99
-2.655701	点	-99
-3.038918	爱尔兰	-99
-2.655701	现象	-99
-2.703126	生产	-99
-2.703126	生产厂家	-99
-2.737888	生产总值	-99
-2.703126	生命周期	-99
-2.655701	用	-99
-2.655701	由于	-99
-2.561797	百分之	-7.681251
-1.303186	的	-99
-3.038918	目标	-99
-3.038918	相当	-99
-2.703126	知道	-99
-2.703126	码	-99
-3.038918	福利	-99
-2.737888	突破	-7.480054
-2.703126	竞争	-99
-3.038918	第三	-99
-2.655701	第三季度	-99
-2.655701	等	-99
-2.737888	等国	-7.414942
-3.038918	约	-99
-2.703126	组合	-99
-3.038918	经济	-99
-2.737888	经济体	-7.481017
-2.655701	缓解	-99
-2.655701	网上	-99
-2.655701	网络	-99
-3.038918	而	-99
-2.655701	耗费	-99
-2.703126	能够	-99
-2.402096	脚	-7.478257
-3.038918	至	-99
-2.655701	良性	-99
-3.038918	芬兰	-99
-3.038918	葡萄牙	-99
-2.703126	被	-99
-2.703126	让	-99
-2.655701	调侃	-99
-3.038918	财政	-99
-2.703126	货	-99
-2.703126	货款	-99
-2.737888	超越	-7.481017
-3.038918	超过	-99
-2.703126	越来越	-99
-3.038918	跃升	-99
-3.038918	跃居	-99
-2.703126	跑	-99
-2.703126	踏入	-99
-2.655701	车	-99
-2.655701	轨道交通	-99
-2.655701	达	-99
-3.038918	达到	-99
-2.703126	过剩	-99
-2.703126	过时	-99
-3.038918	还	-99
-2.354671	还是	-7.473257
-2.703126	这	-99
-2.538316	这个	-7.687931
-2.655701	这是	-99
-2.655701	这样	-99
-3.038918	进出口	-99
-2.703126	连接	-99
-2.703126	那么	-99
-2.703126	里	-99
-3.038918	重大	-99
-3.038918	重点	-99
-3.038918	集装箱	-99
-2.226005	需求	-7.635268
-2.703126	需求量	-99
-2.703126	需要	-99
-2.703126	鞋厂	-99
-3.038918	项目	-99
-3.038918	预期	-99
-3.038918	预计	-99
-3.038918	首位	-99
-3.038918	首次	-99
-2.655701	首选	-99
-2.655701	高峰期	-99

\2-grams:
-1.714609	, 2013	0
-2.015639	, 2014	0
-2.015639	, GDP	-0.7160033
-2.015639	, 与	-1.03931
-1.679847	, 个性化	0
-1.378817	, 人	-1.423246
-1.632422	, 人们	0
-1.679847	, 从而	0
-1.482036	, 但	0
-1.170541	, 你	-1.427938
-1.679847	, 信息	0
-1.632422	, 全国	0
-1.632422	, 其中	0
-1.331392	, 再	0
-2.015639	, 初步	0
-1.331392	, 北京	-1.293731
-1.632422	, 即使	0
-1.679847	, 只有	0
-1.679847	, 可以	0
-1.632422	, 坐一	0
-2.015639	, 增强	0
-2.015639	, 增长	-0.5118833
-2.015639	, 完成	0
-1.679847	, 对不起	0
-2.015639	, 将	0
-1.679847	, 就	-1.341427
-2.015639	, 局	0
-2.015639	, 居民消费	0
-1.679847	, 快速	0
-1.679847	, 成为	-1.130334
-1.679847	, 所以	0
-1.632422	, 折合	0
-2.015639	, 持续	0
-1.679847	, 有的是	0
-2.015639	, 机场	0
-1.679847	, 概不	0
-1.632422	, 每	-1.151732
-1.714609	, 深圳	-1.154902
-1.679847	, 生产厂家	0
-2.015639	, 生产总值	0
-1.632422	, 用	0
-1.632422	, 由于	0
-1.679847	, 能够	0
-1.632422	, 良性	0
-1.679847	, 踏入	0
-1.632422	, 还是	-1.176091
-1.679847	, 鞋厂	0
-2.015639	, 首次	0
0	. </s>
0	1 小时	-1.255273
0	1.431 万亿元	0
0	10% 左右	-0.8129134
0	10.5 左右	-0.8129134
0	116 件	0
0	15.1 ,	-1.109734
0	163 亿辆	0
0	2 万美元	0
0	2.7 亿	0
0	2013 年	-1.410133
0	2014 年	-1.299186
0	2015 年	-1.477122
0	23.5 ,	-1.109734
0	3.5% 左右	-0.9890046
0	30 分钟	0
-0.30103	3000 万人次	0
-0.30103	3000 亿美元	-0.8129134
0	40 名	0
0	5373.6 亿美元	-0.8129134
0	808 元	0
-1.73706	<s> 2013	0
-1.353843	<s> 2015	0
-1.353843	<s> 买	-1.28464
-1.100238	<s> 互联网	0
-1.401268	<s> 产品	-1.306425
-1.353843	<s> 以	0
-1.401268	<s> 以往	0
-1.401268	<s> 但是	0
-1.401268	<s> 全球性	0
-1.353843	<s> 发展	-0.9435186
-1.353843	<s> 同一时间	0
-1.73706	<s> 在	-1.090356
-1.73706	<s> 在世界上	0
-1.401268	<s> 如果	0
-1.401268	<s> 工业	-0.9542425
-1.353843	<s> 截至	0
-1.73706	<s> 报告	-0.8129134
-1.353843	<s> 早晨	0
-1.401268	<s> 某	0
-1.43603	<s> 此外	0
-1.401268	<s> 比如	0
-1.73706	<s> 深圳市政府	0
-1.73706	<s> 而	0
-1.401268	<s> 这	0
-1.73706	<s> 这个	-0.9491331
-1.353843	<s> 这是	0
-1.353843	<s> 这样	0
-0.69897	GDP 去年	0
-0.2218488	GDP 总量	0
-0.69897	GDP 指标	0
-0.8939466	、 希腊	0
-0.5107298	、 度假	0
-0.5107298	、 旅行	0
-0.8939466	、 芬兰	0
-0.8939466	、 葡萄牙	0
0	一 小时	-1.245514
-0.3912066	一个 万众	0
-0.7269987	一个 突破	-0.8129134
-0.3912066	一个 需求	-1.255272
0	一大 基础	0
0	一批 重大	0
0	一款 产品	-1.423247
0	一起 ,	-1.422191
0	万人次 以上	0
0	万亿元 .	0
0	万众 期待	0
0	万美元 ,	-1.109734
0	三十年 的	-1.413718
-0.3636768	上 ,	-1.466877
-0.7468936	上 GDP	-0.7160033
-0.4111015	上 手	0
0	不 对称	0
0	不快 ,	-1.422191
0	不行 了	-1.319915
-0.8016323	与 世界	0
-0.4658403	与 人	-1.306425
-0.4658403	与 厂商	0
-0.8016323	与 当年	0
0	世界 上	-1.028231
0	东京 为例	0
0	东西 需求量	0
0	个人 的	-1.457393
0	个性 需求	-1.255272
0	个性化 的	-1.413718
0	中 ,	-1.109734
-0.30103	为 1.431	0
-0.30103	为 40	0
0	为例 ,	-1.466877
0	主要 预期	0
0	乏人问津 的	-1.413718
-0.4935117	买 三十年	0
-0.4935117	买 上	-1.218073
-0.446087	买 小汽车	-1
0	买鞋 ,	-1.422191
-0.6452436	了 ,	-1.69555
-0.6452436	了 .	0
-0.9706329	了 乏人问津	0
-0.9706329	了 几个	0
-0.9232083	了 小汽车	-1.30103
-0.9706329	了 工业	-0.9542425
-0.9706329	了 这个	-0.9307613
0	了解 客户	0
-0.30103	互联网 改变	0
-0.30103	互联网 时代	-0.9542425
0	亚洲 四小龙	0
0	交通 和	-0.9435186
0	交通拥堵 的	-1.457393
-0.60206	产品 .	0
-0.60206	产品 买	-1.263241
-0.60206	产品 性能	0
-0.60206	产品 的	-1.413718
0	产能 过剩	0
-0.60206	人 ,	-1.41282
-0.30103	人 与	-1.223674
-0.60206	人 的	-1.413718
0	人们 在	-1.417761
0	人均 GDP	-1.017033
0	亿 余辆	0
-0.30103	亿美元 ,	-1.109734
-0.30103	亿美元 .	0
0	亿辆 .	0
0	仅仅 买	-1.263241
0	从 一个	-1.204967
0	从而 让	0
0	以 日本	0
0	以上 .	0
0	以往 一款	0
0	以色列 、	-1.054629
0	件 民生	-0.9890046
0	价格 涨幅	0
-0.30103	企业 ,	-1.422191
-0.30103	企业 竞争	0
0	休闲 、	-1.316907
0	会 首选	0
0	伺候 .	0
-0.5336026	但 已	0
-0.1503859	但 还是	-1.176091
0	但是 ,	-1.422191
-0.30103	位置 ,	-1.105483
-0.30103	位置 与	-1.03931
0	低于 以色列	0
-0.30103	低成本 地	0
-0.30103	低成本 的	-1.413718
0	余辆 ,	-1.466877
-0.2779647	你 在	-1.633781
-0.8025106	你 的	-1.413718
-0.8025106	你 脚	-1.130334
-0.8025106	你 跑	0
0	保有量 达	0
0	信息 不	0
0	偏瘦 ,	-1.422191
0	偏肥 或	-0.9307613
0	做法 已经	0
0	元 .	0
0	全国 机动车	0
0	全市 人均	0
0	全球 第三	0
0	全球性 的	-1.413718
0	公交 网络	0
-0.30103	公共交通 ,	-1.466877
-0.30103	公共交通 是	-0.9435186
0	六月 底	0
0	其中 汽车	0
0	内地 大中城市	0
0	再 坐	0
0	几个 月	0
0	出口 总额	-0.8129134
-0.4771213	出行 1	0
-0.4771213	出行 的	-1.457393
-0.4771213	出行 高峰期	0
0	分钟 耗费	0
0	初步 预计	0
-0.509306	到 一起	0
-0.4618813	到 德国	0
-0.4618813	到 波兰	0
0	到来 ,	-1.422191
-0.4771213	北京 出行	-1.30103
-0.4771213	北京 堵车	-1.176091
-0.4771213	北京 朝阳区	-1
0	即使 拥有	-1.176091
0	厂商 ,	-1.422191
0	去年 突破	-0.8129134
-0.1503859	发展 城市	-1.176091
-0.5336026	发展 的	-1.105888
0	发达 的	-1.457393
0	另 一个	-1.023767
0	只有 标准	0
0	可以 实现	-1.255272
0	台湾 ,	-1.109734
0	同一时间 点	0
0	名 左右	-0.9890046
-0.30103	吞吐量 跃升	0
-0.30103	吞吐量 跃居	0
0	启动 一批	0
-0.1503859	和 公共交通	-1.176091
-0.5336026	和 巴基斯坦	0
0	四小龙 比肩	0
-0.30103	国家 或	-0.9491331
-0.30103	国家 经济体	-0.8129134
-1.276845	在 3.5%	0
-0.8936279	在 个人	0
-0.8936279	在 出行	-1.30103
-0.8936279	在 北京	-1.30103
-0.8936279	在 堵车	-1.176091
-0.5925978	在 朝阳区	0
-0.8936279	在 法国	0
-1.276845	在 深圳	-1.046997
0	在世界上 的	-1.097681
0	地 了解	0
0	地区 经济体	-0.8129134
0	坐 一	0
0	坐一 小时	-1.380211
0	坐车 一	0
-0.30103	城市 交通拥堵	0
-0.30103	城市 公共交通	-1.176091
0	基础 ,	-1.422191
-0.30103	堵车 上	-1.23083
-0.30103	堵车 现象	0
0	增强 市民	0
-0.60206	增长 10%	0
-0.1249387	增长 百分之	0
0	处 位置	-0.8129134
-0.4935117	多 大	-1.130334
-0.1681223	多 的	-1.709976
-0.30103	大 ,	-1.422191
-0.30103	大 .	0
0	大中城市 首位	0
0	大大缩短 了	-1.319915
0	如果 你	-1.356895
0	安排 重点	0
0	完成 116	0
0	实事 ,	-1.109734
-0.4771213	实现 低成本	-1.130334
-0.4771213	实现 小批量	0
-0.4771213	实现 连接	0
0	客户 的	-1.413718
0	对不起 ,	-1.422191
0	对称 .	0
0	导致 企业	-1.130334
0	将 启动	0
0	小批量 的	-1.413718
-0.69897	小时 ,	-1.466877
-0.69897	小时 到	-1.293205
-0.39794	小时 就	-1.536323
-0.69897	小时 的	-1.457393
-0.1760913	小汽车 ,	-1.7457
-0.4771213	小汽车 交通	0
-0.7280415	就 从	0
-0.6806168	就 到	-1.293205
-0.6806168	就 形成	0
-0.6806168	就 有	0
-0.7280415	就 需要	0
0	局 内地	0
0	局面 ,	-1.41282
0	居民消费 价格	0
-0.4771213	工业 企业	-1.130334
-0.1760913	工业 时代	0
0	工作 报告	-0.8129134
0	工程 ,	-1.109734
-0.30103	左右 ,	-1.38948
-0.60206	左右 .	0
-0.60206	左右 的	-1.097681
0	已 超越	-0.8129134
0	已经 不行	0
0	巴基斯坦 等国	-0.8129134
0	市民 幸福感	0
0	希腊 等国	-0.8129134
-0.609484	年 六月	0
-0.5155795	年 深圳	-1.200225
-0.9927008	年 深圳市	0
-0.609484	年 第三季度	0
-0.9927008	年 经济	0
0	幸福感 .	0
0	底 ,	-1.466877
0	度假 、	-1.316907
0	当年 的	-1.105888
0	形成 了	-1.421929
0	往往 把	0
0	德国 了	-1.365673
0	快 的	-1.413718
0	快速 生产	0
0	性能 组合	0
-0.4771213	总量 低于	0
-0.4771213	总量 排名	0
-0.4771213	总量 约	0
-0.30103	总额 超过	0
-0.30103	总额 达到	0
-0.30103	成为 一款	0
-0.30103	成为 了	-1.382217
0	成本 每月	0
-0.1648103	或 偏瘦	0
-0.5006024	或 地区	0
0	截至 2015	0
0	所 处	0
0	所以 往往	0
0	手 了	-1.382217
0	手机 仅仅	0
0	把 需求	-1.255272
0	折合 时间	0
-0.30103	报告 显示	0
-0.30103	报告 还	0
-0.30103	拥有 发达	0
-0.30103	拥有 更	0
0	持续 提升	0
0	指标 的	-1.105888
0	排名 为	-0.8129134
0	控制 在	-1.090356
0	措施 .	0
0	提升 民生	-0.9890046
0	支出 增长	-0.5118833
0	改变 了	-1.382217
0	放大 .	0
0	方面 .	0
0	旅客 吞吐量	-0.8129134
0	旅行 等	0
-0.30103	无法 低成本	-1.130334
-0.30103	无法 知道	0
0	日本 东京	0
0	早晨 你	-1.151732
-0.1760913	时代 的	-1.688238
-0.4771213	时代 里	0
0	时候 ,	-1.466877
0	时间 成本	0
-0.5336026	是 出口	0
-0.1503859	是 缓解	0
0	显示 ,	-1.385187
0	更 多	-0.9836096
0	月 ,	-1.422191
0	有 30	0
0	有效 措施	0
0	有的是 快	0
-0.1760913	朝阳区 ,	-1.739365
-0.4771213	朝阳区 .	0
0	期待 的	-1.413718
0	机动车 保有量	0
0	机场 旅客	0
0	来看 深圳	-1.046997
0	某 手机	0
0	标准 码	0
0	概不 伺候	0
0	此外 ,	-1.385187
0	段子 .	0
-0.3253894	每 一个	-1.204967
-0.2779647	每 出行	-1.30103
0	每个 人	-1.306425
0	每月 808	0
0	比如 买鞋	0
0	比肩 .	0
-0.60206	民生 实事	0
-0.60206	民生 工程	0
-0.60206	民生 福利	0
-0.60206	民生 项目	0
0	水平 ,	-1.109734
0	汽车 163	0
0	沟通 .	0
0	没有 那么	0
0	法国 坐车	0
0	波兰 了	-1.365673
0	涨幅 控制	0
-0.845098	深圳 2014	0
-0.544068	深圳 GDP	-0.6989702
-0.845098	深圳 全市	0
-0.845098	深圳 所	0
-0.845098	深圳 港	0
-0.845098	深圳 生产总值	0
0	深圳市 财政	0
0	深圳市政府 工作	0
0	港 集装箱	0
0	激烈 .	0
0	点 ,	-1.446759
0	爱尔兰 、	-1.054629
0	现象 的	-1.457393
0	生产 </s>
0	生产厂家 无法	-1.130334
0	生产总值 增长	0
0	生命周期 大大缩短	0
0	用 在	-1.417761
0	由于 拥有	-1.176091
-0.4771213	百分之 10.5	0
-0.4771213	百分之 15.1	0
-0.4771213	百分之 23.5	0
-1.39994	的 ,	-1.422191
-1.39994	的 .	0
-1.39994	的 一大	0
-1.39994	的 东西	0
-1.39994	的 个性	0
-1.735732	的 主要	0
-1.735732	的 亚洲	0
-1.39994	的 产品	-1.306425
-1.39994	的 产能	0
-1.352515	的 休闲	0
-1.39994	的 做法	0
-1.352515	的 公交	0
-1.39994	的 到来	0
-1.735732	的 另	0
-1.434702	的 国家	0
-1.39994	的 实现	-1.255272
-1.352515	的 小汽车	-1
-1.352515	的 时候	0
-1.352515	的 有效	0
-1.352515	的 段子	0
-1.39994	的 每	-1.153399
-1.39994	的 生命周期	0
-1.39994	的 脚	-1.130334
-1.39994	的 货款	0
-1.352515	的 车	0
-1.39994	的 过时	0
0	目标 中	0
0	相当 .	0
0	知道 你	-1.356895
0	码 .	0
0	福利 水平	0
-0.30103	突破 2	0
-0.30103	突破 是	-0.9635575
0	竞争 越来越	0
0	第三 ,	-1.109734
0	第三季度 ,	-1.456385
0	等 方面	0
-0.30103	等国 ,	-1.099389
-0.30103	等国 .	0
0	约 为	-0.8129134
0	组合 到	-1.270512
0	经济 发展	-0.9635575
-0.30103	经济体 来看	0
-0.30103	经济体 相当	0
0	缓解 城市	-1.176091
0	网上 调侃	0
0	网络 ,	-1.466877
0	而 进出口	0
0	耗费 在	-1.417761
0	能够 实现	-1.255272
-0.30103	脚 偏肥	0
-0.30103	脚 多	-1.263241
0	至 3000	-0.8129134
0	良性 沟通	0
0	芬兰 、	-1.054629
0	葡萄牙 和	-0.9635575
0	被 放大	0
0	让 每个	0
0	调侃 ,	-1.456385
0	财政 安排	0
0	货 .	0
0	货款 成为	-1.130334
-0.30103	超越 台湾	0
-0.30103	超越 爱尔兰	0
0	超过 3000	-0.8129134
0	越来越 激烈	0
0	跃升 至	0
0	跃居 全球	0
0	跑 不快	0
0	踏入 了	-1.382217
0	车 ,	-1.446759
0	轨道交通 .	0
0	达 2.7	0
0	达到 5373.6	0
0	过剩 导致	0
0	过时 货	0
0	还 显示	0
-0.30103	还是 会	0
-0.30103	还是 在	-1.348982
0	这 就	-1.341427
-0.5006024	这个 位置	-0.8129134
-0.1648103	这个 局面	0
0	这是 网上	0
0	这样 就	-1.375499
0	进出口 总额	-0.8129134
0	连接 ,	-1.422191
0	那么 大	-1.130334
0	里 ,	-1.422191
0	重大 民生	-0.9890046
0	重点 民生	-0.9890046
0	集装箱 吞吐量	-0.8129134
-0.4771213	需求 ,	-1.422191
-0.4771213	需求 多	-0.937852
-0.4771213	需求 被	0
0	需求量 没有	0
0	需要 工业	-1.255272
0	鞋厂 无法	-1.130334
0	项目 支出	0
0	预期 目标	0
0	预计 ,	-1.105483
0	首位 .	0
0	首次 超越	-0.8129134
0	首选 轨道交通	0
0	高峰期 ,	-1.466877

\3-grams:
-0.03476211	15.1 , 局
-0.03476211	23.5 , 将
-0.01639042	一起 , 成为
-0.03476211	万美元 , 首次
-0.01472326	上 , 折合
-0.01639042	不快 , 有的是
-0.03476211	中 , 生产总值
-0.01472326	为例 , 由于
-0.01639042	买鞋 , 鞋厂
-0.3332147	了 , 你
-0.28579	了 , 再
-0.01639042	人 , 人
-0.03476211	亿美元 , 增长
-0.01639042	企业 , 能够
-0.01639042	但是 , 个性化
-0.03476211	位置 , 深圳
-0.01472326	余辆 , 其中
-0.01639042	偏瘦 , 对不起
-0.01472326	公共交通 , 良性
-0.01639042	到来 , 踏入
-0.01639042	厂商 , 可以
-0.03476211	台湾 , 与
-0.01639042	基础 , 信息
-0.01639042	大 , 只有
-0.03476211	实事 , 持续
-0.01639042	对不起 , 概不
-0.01472326	小时 , 还是
-0.308454	小汽车 , 但
-0.308454	小汽车 , 用
-0.01639042	局面 , 人
-0.03476211	工程 , 完成
-0.3187588	左右 , GDP
-0.3187588	左右 , 居民消费
-0.01472326	底 , 全国
-0.01472326	时候 , 即使
-0.3187588	显示 , 2013
-0.3187588	显示 , 初步
-0.01639042	月 , 就
-0.308454	朝阳区 , 再
-0.308454	朝阳区 , 坐一
-0.3187588	此外 , 2014
-0.3187588	此外 , 深圳
-0.03476211	水平 , 增强
-0.01472326	点 , 你
-0.01639042	的 , 快速
-0.03476211	第三 , 机场
-0.01472326	第三季度 , 北京
-0.03476211	等国 , 但
-0.01472326	网络 , 人们
-0.01472326	调侃 , 北京
-0.01472326	车 , 你
-0.01639042	连接 , 从而
-0.01639042	里 , 生产厂家
-0.01639042	需求 , 所以
-0.03476211	预计 , 2013
-0.01472326	高峰期 , 每
0	万亿元 . </s>
0	了 . </s>
0	产品 . </s>
0	亿美元 . </s>
0	亿辆 . </s>
0	以上 . </s>
0	伺候 . </s>
0	元 . </s>
0	大 . </s>
0	对称 . </s>
0	左右 . </s>
0	幸福感 . </s>
0	措施 . </s>
0	放大 . </s>
0	方面 . </s>
0	朝阳区 . </s>
0	段子 . </s>
0	比肩 . </s>
0	沟通 . </s>
0	激烈 . </s>
0	的 . </s>
0	相当 . </s>
0	码 . </s>
0	等国 . </s>
0	货 . </s>
0	轨道交通 . </s>
0	首位 . </s>
0	出行 1 小时
0	为 1.431 万亿元
0	增长 10% 左右
0	百分之 10.5 左右
0	完成 116 件
0	百分之 15.1 ,
0	汽车 163 亿辆
0	突破 2 万美元
0	达 2.7 亿
0	, 2013 年
0	<s> 2013 年
0	, 2014 年
0	深圳 2014 年
0	<s> 2015 年
0	截至 2015 年
0	百分之 23.5 ,
0	在 3.5% 左右
0	有 30 分钟
-0.03476211	至 3000 万人次
-0.03476211	超过 3000 亿美元
0	为 40 名
0	达到 5373.6 亿美元
0	每月 808 元
-0.03476211	, GDP 总量
-0.03476211	上 GDP 总量
-0.03476211	人均 GDP 去年
-0.3187588	深圳 GDP 总量
-0.3187588	深圳 GDP 指标
-0.03476211	以色列 、 芬兰
-0.01472326	休闲 、 度假
-0.01472326	度假 、 旅行
-0.03476211	爱尔兰 、 葡萄牙
-0.03476211	芬兰 、 希腊
0	坐 一 小时
0	坐车 一 小时
-0.01639042	从 一个 万众
-0.03476211	另 一个 突破
-0.01639042	每 一个 需求
0	的 一大 基础
0	启动 一批 重大
0	以往 一款 产品
0	成为 一款 产品
0	到 一起 ,
0	3000 万人次 以上
0	1.431 万亿元 .
0	一个 万众 期待
0	2 万美元 ,
0	买 三十年 的
-0.03476211	世界 上 GDP
-0.01639042	买 上 手
-0.01472326	堵车 上 ,
0	信息 不 对称
0	跑 不快 ,
0	已经 不行 了
-0.03476211	, 与 当年
-0.3093025	人 与 人
-0.3093025	人 与 厂商
-0.03476211	位置 与 世界
0	与 世界 上
0	日本 东京 为例
0	的 东西 需求量
0	在 个人 的
0	的 个性 需求
0	, 个性化 的
0	目标 中 ,
-0.03476211	排名 为 40
-0.03476211	约 为 1.431
0	东京 为例 ,
0	的 主要 预期
0	了 乏人问津 的
-0.01472326	<s> 买 小汽车
-0.01639042	产品 买 三十年
-0.01639042	仅仅 买 上
0	比如 买鞋 ,
-0.01639042	不行 了 ,
-0.01639042	大大缩短 了 .
-0.01472326	形成 了 小汽车
-0.01472326	德国 了 ,
-0.01639042	成为 了 乏人问津
-0.01639042	手 了 几个
-0.01639042	改变 了 这个
-0.01472326	波兰 了 .
-0.01639042	踏入 了 工业
0	地 了解 客户
-0.30103	<s> 互联网 改变
-0.30103	<s> 互联网 时代
0	的 亚洲 四小龙
0	小汽车 交通 和
0	城市 交通拥堵 的
-0.01639042	<s> 产品 的
-0.3093025	一款 产品 .
-0.3093025	一款 产品 买
-0.01639042	的 产品 性能
0	的 产能 过剩
-0.008272526	, 人 与
-0.01639042	与 人 ,
-0.01639042	每个 人 的
0	, 人们 在
0	全市 人均 GDP
0	2.7 亿 余辆
-0.03476211	3000 亿美元 .
-0.03476211	5373.6 亿美元 ,
0	163 亿辆 .
0	手机 仅仅 买
0	就 从 一个
0	, 从而 让
0	<s> 以 日本
0	万人次 以上 .
0	<s> 以往 一款
0	低于 以色列 、
0	116 件 民生
0	居民消费 价格 涨幅
-0.01639042	导致 企业 竞争
-0.01639042	工业 企业 ,
0	的 休闲 、
0	还是 会 首选
0	概不 伺候 .
-0.5336026	, 但 已
-0.1503859	, 但 还是
0	<s> 但是 ,
-0.03476211	处 位置 ,
-0.03476211	这个 位置 与
0	总量 低于 以色列
-0.01639042	实现 低成本 的
-0.01639042	无法 低成本 地
0	亿 余辆 ,
-0.1659909	, 你 在
-0.5144456	, 你 跑
-0.01639042	如果 你 的
-0.01472326	早晨 你 在
-0.01639042	知道 你 脚
0	机动车 保有量 达
0	, 信息 不
0	或 偏瘦 ,
0	脚 偏肥 或
0	的 做法 已经
0	808 元 .
0	, 全国 机动车
0	深圳 全市 人均
0	跃居 全球 第三
0	<s> 全球性 的
0	的 公交 网络
-0.01472326	和 公共交通 ,
-0.01472326	城市 公共交通 是
0	年 六月 底
0	, 其中 汽车
0	局 内地 大中城市
0	, 再 坐
0	了 几个 月
0	是 出口 总额
-0.01472326	北京 出行 高峰期
-0.01472326	在 出行 的
-0.01472326	每 出行 1
0	30 分钟 耗费
0	, 初步 预计
-0.01472326	小时 到 德国
-0.01472326	就 到 波兰
-0.01639042	组合 到 一起
0	的 到来 ,
-0.308454	, 北京 出行
-0.308454	, 北京 堵车
-0.01472326	在 北京 朝阳区
0	, 即使 拥有
0	与 厂商 ,
0	GDP 去年 突破
-0.01472326	<s> 发展 城市
-0.03476211	经济 发展 的
0	拥有 发达 的
0	的 另 一个
0	, 只有 标准
0	, 可以 实现
0	超越 台湾 ,
0	<s> 同一时间 点
0	40 名 左右
-0.03476211	旅客 吞吐量 跃升
-0.03476211	集装箱 吞吐量 跃居
0	将 启动 一批
-0.01472326	交通 和 公共交通
-0.03476211	葡萄牙 和 巴基斯坦
0	亚洲 四小龙 比肩
-0.30103	的 国家 或
-0.30103	的 国家 经济体
-0.03476211	<s> 在 深圳
-0.01472326	人们 在 出行
-0.4820847	你 在 北京
-0.4820847	你 在 朝阳区
-0.4820847	你 在 法国
-0.03476211	控制 在 3.5%
-0.01472326	用 在 个人
-0.01472326	耗费 在 堵车
-0.01472326	还是 在 朝阳区
0	<s> 在世界上 的
0	低成本 地 了解
0	或 地区 经济体
0	再 坐 一
0	, 坐一 小时
0	法国 坐车 一
-0.01472326	发展 城市 公共交通
-0.01472326	缓解 城市 交通拥堵
0	一大 基础 ,
-0.01472326	北京 堵车 现象
-0.01472326	在 堵车 上
0	, 增强 市民
-0.03476211	, 增长 百分之
-0.03476211	支出 增长 百分之
-0.30103	生产总值 增长 10%
-0.30103	生产总值 增长 百分之
0	所 处 位置
-0.01472326	更 多 的
-0.01639042	脚 多 大
-0.01639042	需求 多 的
-0.01639042	多 大 ,
-0.01639042	那么 大 .
0	内地 大中城市 首位
0	生命周期 大大缩短 了
0	<s> 如果 你
0	财政 安排 重点
0	, 完成 116
0	民生 实事 ,
-0.01639042	可以 实现 低成本
-0.01639042	的 实现 连接
-0.01639042	能够 实现 小批量
0	了解 客户 的
0	, 对不起 ,
0	不 对称 .
0	过剩 导致 企业
0	, 将 启动
0	实现 小批量 的
-0.01472326	1 小时 就
-0.4820847	一 小时 ,
-0.4820847	一 小时 到
-0.4820847	一 小时 就
-0.01472326	坐一 小时 的
-0.01472326	买 小汽车 ,
-0.01472326	了 小汽车 交通
-0.01472326	的 小汽车 ,
-0.01639042	, 就 从
-0.308454	小时 就 到
-0.308454	小时 就 有
-0.01639042	这 就 需要
-0.01472326	这样 就 形成
0	, 局 内地
0	这个 局面 ,
0	, 居民消费 价格
-0.01639042	<s> 工业 时代
-0.01639042	了 工业 时代
-0.01639042	需要 工业 企业
0	深圳市政府 工作 报告
0	民生 工程 ,
-0.03476211	10% 左右 ,
-0.03476211	10.5 左右 ,
-0.03476211	3.5% 左右 .
-0.03476211	名 左右 的
0	但 已 超越
0	做法 已经 不行
0	和 巴基斯坦 等国
0	增强 市民 幸福感
0	、 希腊 等国
-0.01189922	2013 年 深圳
-0.3187588	2014 年 深圳市
-0.3187588	2014 年 经济
-0.308454	2015 年 六月
-0.308454	2015 年 第三季度
0	市民 幸福感 .
0	六月 底 ,
0	、 度假 、
0	与 当年 的
0	就 形成 了
0	所以 往往 把
0	到 德国 了
0	有的是 快 的
0	, 快速 生产
0	产品 性能 组合
-0.4771213	GDP 总量 低于
-0.4771213	GDP 总量 排名
-0.4771213	GDP 总量 约
-0.03476211	出口 总额 超过
-0.03476211	进出口 总额 达到
-0.01639042	, 成为 一款
-0.01639042	货款 成为 了
0	时间 成本 每月
-0.01639042	偏肥 或 偏瘦
-0.03476211	国家 或 地区
0	<s> 截至 2015
0	深圳 所 处
0	, 所以 往往
0	上 手 了
0	某 手机 仅仅
0	往往 把 需求
0	, 折合 时间
-0.03476211	<s> 报告 还
-0.03476211	工作 报告 显示
-0.01472326	即使 拥有 更
-0.01472326	由于 拥有 发达
0	, 持续 提升
0	GDP 指标 的
0	总量 排名 为
0	涨幅 控制 在
0	有效 措施 .
0	持续 提升 民生
0	项目 支出 增长
0	互联网 改变 了
0	被 放大 .
0	等 方面 .
0	机场 旅客 吞吐量
0	、 旅行 等
-0.01639042	生产厂家 无法 低成本
-0.01639042	鞋厂 无法 知道
0	以 日本 东京
0	<s> 早晨 你
-0.01639042	互联网 时代 的
-0.30103	工业 时代 的
-0.30103	工业 时代 里
0	的 时候 ,
0	折合 时间 成本
-0.01472326	公共交通 是 缓解
-0.03476211	突破 是 出口
0	报告 显示 ,
0	还 显示 ,
0	拥有 更 多
0	几个 月 ,
0	就 有 30
0	的 有效 措施
0	, 有的是 快
-0.01472326	北京 朝阳区 ,
-0.30103	在 朝阳区 ,
-0.30103	在 朝阳区 .
0	万众 期待 的
0	全国 机动车 保有量
0	, 机场 旅客
0	经济体 来看 深圳
0	<s> 某 手机
0	只有 标准 码
0	, 概不 伺候
0	<s> 此外 ,
0	的 段子 .
-0.01472326	, 每 出行
-0.01639042	的 每 一个
0	让 每个 人
0	成本 每月 808
0	<s> 比如 买鞋
0	四小龙 比肩 .
-0.03476211	件 民生 实事
-0.03476211	提升 民生 福利
-0.03476211	重大 民生 工程
-0.03476211	重点 民生 项目
0	福利 水平 ,
0	其中 汽车 163
0	良性 沟通 .
0	需求量 没有 那么
0	在 法国 坐车
0	到 波兰 了
0	价格 涨幅 控制
-0.3187588	, 深圳 GDP
-0.3187588	, 深圳 港
-0.03476211	在 深圳 2014
-0.4890205	年 深圳 GDP
-0.4890205	年 深圳 全市
-0.4890205	年 深圳 生产总值
-0.03476211	来看 深圳 所
0	年 深圳市 财政
0	<s> 深圳市政府 工作
0	深圳 港 集装箱
0	越来越 激烈 .
0	同一时间 点 ,
0	超越 爱尔兰 、
0	堵车 现象 的
0	快速 生产 </s>
0	, 生产厂家 无法
0	, 生产总值 增长
0	深圳 生产总值 增长
0	的 生命周期 大大缩短
0	, 用 在
0	, 由于 拥有
-0.4771213	增长 百分之 10.5
-0.4771213	增长 百分之 15.1
-0.4771213	增长 百分之 23.5
-0.01639042	三十年 的 做法
-0.01472326	个人 的 休闲
-0.01639042	个性化 的 东西
-0.01639042	乏人问津 的 过时
-0.01472326	交通拥堵 的 有效
-0.01639042	产品 的 生命周期
-0.01639042	人 的 个性
-0.01639042	低成本 的 实现
-0.01639042	你 的 脚
-0.01639042	全球性 的 产能
-0.01472326	出行 的 时候
-0.03476211	发展 的 主要
-0.01472326	发达 的 公交
-0.03476211	在世界上 的 国家
-0.3332147	多 的 产品
-0.28579	多 的 小汽车
-0.01639042	客户 的 每
-0.01639042	小批量 的 ,
-0.01472326	小时 的 车
-0.03476211	左右 的 国家
-0.03476211	当年 的 亚洲
-0.01639042	快 的 .
-0.03476211	指标 的 另
-0.3093025	时代 的 一大
-0.3093025	时代 的 到来
-0.01639042	期待 的 货款
-0.01472326	现象 的 段子
0	预期 目标 中
0	经济体 相当 .
0	无法 知道 你
0	标准 码 .
0	民生 福利 水平
-0.03476211	一个 突破 是
-0.03476211	去年 突破 2
0	企业 竞争 越来越
0	全球 第三 ,
0	年 第三季度 ,
0	旅行 等 方面
-0.03476211	巴基斯坦 等国 .
-0.03476211	希腊 等国 ,
0	总量 约 为
0	性能 组合 到
0	年 经济 发展
-0.03476211	国家 经济体 来看
-0.03476211	地区 经济体 相当
0	是 缓解 城市
0	这是 网上 调侃
0	公交 网络 ,
0	<s> 而 进出口
0	分钟 耗费 在
0	, 能够 实现
-0.01639042	你 脚 多
-0.01639042	的 脚 偏肥
0	跃升 至 3000
0	, 良性 沟通
0	、 芬兰 、
0	、 葡萄牙 和
0	需求 被 放大
0	从而 让 每个
0	网上 调侃 ,
0	深圳市 财政 安排
0	过时 货 .
0	的 货款 成为
-0.03476211	已 超越 爱尔兰
-0.03476211	首次 超越 台湾
0	总额 超过 3000
0	竞争 越来越 激烈
0	吞吐量 跃升 至
0	吞吐量 跃居 全球
0	你 跑 不快
0	, 踏入 了
0	的 车 ,
0	首选 轨道交通 .
0	保有量 达 2.7
0	总额 达到 5373.6
0	产能 过剩 导致
0	的 过时 货
0	报告 还 显示
-0.01472326	, 还是 在
-0.01472326	但 还是 会
0	<s> 这 就
-0.03476211	<s> 这个 位置
-0.01639042	了 这个 局面
0	<s> 这是 网上
0	<s> 这样 就
0	而 进出口 总额
0	实现 连接 ,
0	没有 那么 大
0	时代 里 ,
0	一批 重大 民生
0	安排 重点 民生
0	港 集装箱 吞吐量
-0.01639042	一个 需求 ,
-0.01639042	个性 需求 被
-0.01639042	把 需求 多
0	东西 需求量 没有
0	就 需要 工业
0	, 鞋厂 无法
0	民生 项目 支出
0	主要 预期 目标
0	初步 预计 ,
0	大中城市 首位 .
0	, 首次 超越
0	会 首选 轨道交通
0	出行 高峰期 ,

\end\
